%YAML:1.0
---
opencv_ml_svm:
   format: 3
   svmType: C_SVC
   kernel:
      type: POLY
      degree: 3.
      gamma: 3.
      coef0: 0.
   C: 1.
   term_criteria: { iterations:4000000 }
   var_count: 24
   class_count: 2
   class_labels: !!opencv-matrix
      rows: 2
      cols: 1
      dt: i
      data: [ 0, 1 ]
   class_weights: !!opencv-matrix
      rows: 2
      cols: 1
      dt: f
      data: [ 1.37750406e+01, 1. ]
   sv_total: 1874
   support_vectors:
      - [ 0., 120., 6.12500000e+01, 76., 4.92677650e+01, 16.,
          6.54166996e-01, 3.83332998e-01, 2., 6., 0., 0., 0., 3., 1., 5.,
          1., 0., 0., 0., 0., 0., 0., 0. ]
      - [ 0., 16., 5.80000019e+00, 0., 7.13862801e+00, 10.,
          5.95833004e-01, 4.54167008e-01, 19., 10., 0., 0., 0., 0., 0.,
          0., 0., 0., 0., 0., 0., 0., 0., 0. ]
      - [ 0., 16., 2.28571391e+00, 0., 5.59883404e+00, 7.,
          5.04167020e-01, 3.41666996e-01, 36., 7., 0., 0., 0., 0., 0.,
          0., 0., 0., 0., 0., 0., 0., 0., 0. ]
      - [ 0., 236., 2.96000004e+01, 0., 7.56384354e+01, 15.,
          2.87499994e-01, 4.25000012e-01, 57., 13., 0., 0., 0., 0., 0.,
          0., 0., 0., 0., 0., 0., 1., 1., 0. ]
      - [ 0., 19., 6.75000000e+00, 0., 7.69798183e+00, 28.,
          5.87499976e-01, 2.20833004e-01, 58., 25., 3., 0., 0., 0., 0.,
          0., 0., 0., 0., 0., 0., 0., 0., 0. ]
      - [ 0., 20., 5.71429014e-01, 0., 3.33197308e+00, 35.,
          2.16666996e-01, 3.41666996e-01, 70., 34., 1., 0., 0., 0., 0.,
          0., 0., 0., 0., 0., 0., 0., 0., 0. ]
      - [ 0., 25., 8.25000000e+00, 0., 9.85837173e+00, 28.,
          5.29166996e-01, 2.20833004e-01, 70., 22., 6., 0., 0., 0., 0.,
          0., 0., 0., 0., 0., 0., 0., 0., 0. ]
      - [ 0., 88., 2.24285717e+01, 12., 2.64702377e+01, 14.,
          8.00000012e-01, 4.74999994e-01, 70., 7., 2., 4., 0., 0., 1.,
          0., 0., 0., 0., 0., 0., 0., 0., 0. ]
      - [ 0., 19., 2.62500000e+00, 0., 6.22369480e+00, 32.,
          3.83332998e-01, 2.79166996e-01, 75., 29., 3., 0., 0., 0., 0.,
          0., 0., 0., 0., 0., 0., 0., 0., 0. ]
      - [ 0., 18., 5.29411972e-01, 0., 3.04123902e+00, 34.,
          1.74999997e-01, 4.66666996e-01, 79., 33., 1., 0., 0., 0., 0.,
          0., 0., 0., 0., 0., 0., 0., 0., 0. ]
      - [ 0., 24., 4.96875000e+00, 0., 8.79802704e+00, 32.,
          4.00000006e-01, 2.62499988e-01, 85., 25., 7., 0., 0., 0., 0.,
          0., 0., 0., 0., 0., 0., 0., 0., 0. ]
      - [ 0., 151., 8.53809509e+01, 130., 6.72043610e+01, 21.,
          2.16666996e-01, 5.29166996e-01, 87., 8., 0., 0., 0., 0., 0.,
          0., 5., 8., 0., 0., 0., 0., 0., 0. ]
      - [ 0., 50., 9.43333340e+00, 0., 1.24141941e+01, 30.,
          2.37499997e-01, 6.25000000e-01, 90., 22., 7., 1., 0., 0., 0.,
          0., 0., 0., 0., 0., 0., 0., 0., 0. ]
      - [ 0., 26., 7.64706016e-01, 0., 4.39290094e+00, 34.,
          1.95832998e-01, 5.50000012e-01, 95., 33., 1., 0., 0., 0., 0.,
          0., 0., 0., 0., 0., 0., 0., 0., 0. ]
      - [ 0., 26., 2.63636398e+00, 0., 6.47053099e+00, 33.,
          2.37499997e-01, 3.83332998e-01, 102., 32., 1., 0., 0., 0., 0.,
          0., 0., 0., 0., 0., 0., 0., 0., 0. ]
      - [ 0., 64., 4.48387098e+00, 0., 1.26869783e+01, 31.,
          5.45832992e-01, 7.12499976e-01, 103., 28., 2., 0., 1., 0., 0.,
          0., 0., 0., 0., 0., 0., 0., 0., 0. ]
      - [ 0., 60., 1.72857151e+01, 15., 1.83883839e+01, 28.,
          7.95832992e-01, 6.04166985e-01, 104., 15., 8., 2., 3., 0., 0.,
          0., 0., 0., 0., 0., 0., 0., 0., 0. ]
      - [ 0., 19., 4.71428585e+00, 0., 6.75096416e+00, 35.,
          4.87500012e-01, 2.58332998e-01, 105., 34., 1., 0., 0., 0., 0.,
          0., 0., 0., 0., 0., 0., 0., 0., 0. ]
      - [ 0., 27., 1.40681820e+01, 16., 9.48778534e+00, 44.,
          4.58332986e-01, 2.83333004e-01, 106., 26., 18., 0., 0., 0., 0.,
          0., 0., 0., 0., 0., 0., 0., 0., 0. ]
      - [ 0., 26., 1.50000000e+00, 0., 6.00122499e+00, 34.,
          2.58332998e-01, 3.83332998e-01, 107., 32., 2., 0., 0., 0., 0.,
          0., 0., 0., 0., 0., 0., 0., 0., 0. ]
      - [ 0., 118., 8.56470566e+01, 106., 4.39330254e+01, 34.,
          3.37500006e-01, 5.45832992e-01, 108., 7., 0., 0., 0., 0., 5.,
          22., 0., 0., 0., 0., 0., 0., 0., 0. ]
      - [ 0., 109., 2.31538467e+01, 0., 2.94627438e+01, 26.,
          6.66666985e-01, 3.29167008e-01, 111., 14., 2., 7., 1., 1., 0.,
          1., 0., 0., 0., 0., 0., 0., 0., 0. ]
      - [ 0., 199., 149., 180., 6.93343353e+01, 40., 4.45832998e-01,
          5.70833027e-01, 112., 7., 0., 0., 0., 0., 0., 0., 1., 0., 1.,
          25., 6., 0., 0., 0. ]
      - [ 0., 31., 1.58846149e+01, 19., 9.50435925e+00, 26.,
          4.12499994e-01, 5.50000012e-01, 113., 9., 17., 0., 0., 0., 0.,
          0., 0., 0., 0., 0., 0., 0., 0., 0. ]
      - [ 0., 18., 3.59999990e+00, 0., 7.19999981e+00, 5.,
          3.00000012e-01, 4.33333009e-01, 114., 4., 1., 0., 0., 0., 0.,
          0., 0., 0., 0., 0., 0., 0., 0., 0. ]
      - [ 0., 44., 1.32500000e+01, 0., 1.64018555e+01, 12.,
          3.00000012e-01, 4.83332992e-01, 114., 7., 3., 2., 0., 0., 0.,
          0., 0., 0., 0., 0., 0., 0., 0., 0. ]
      - [ 0., 47., 1.82352943e+01, 17., 1.56394272e+01, 34.,
          4.20832992e-01, 5.45832992e-01, 116., 17., 9., 8., 0., 0., 0.,
          0., 0., 0., 0., 0., 0., 0., 0., 0. ]
      - [ 0., 128., 2.75357151e+01, 29., 2.73306236e+01, 28.,
          5.50000012e-01, 3.00000012e-01, 116., 11., 4., 10., 2., 0., 0.,
          0., 1., 0., 0., 0., 0., 0., 0., 0. ]
      - [ 0., 103., 2.67428570e+01, 22., 2.33853951e+01, 35.,
          4.20832992e-01, 3.49999994e-01, 123., 10., 14., 6., 4., 0., 0.,
          1., 0., 0., 0., 0., 0., 0., 0., 0. ]
      - [ 0., 54., 1.43030300e+01, 13., 1.20491037e+01, 33.,
          4.25000012e-01, 5.29166996e-01, 123., 23., 8., 1., 1., 0., 0.,
          0., 0., 0., 0., 0., 0., 0., 0., 0. ]
      - [ 0., 16., 1.22222197e+00, 0., 4.06961012e+00, 36.,
          3.41666996e-01, 4.87500012e-01, 126., 36., 0., 0., 0., 0., 0.,
          0., 0., 0., 0., 0., 0., 0., 0., 0. ]
      - [ 0., 33., 13., 14., 1.17014132e+01, 13., 4.16667014e-01,
          4.79167014e-01, 127., 9., 4., 0., 0., 0., 0., 0., 0., 0., 0.,
          0., 0., 0., 0., 0. ]
      - [ 0., 58., 2.06923084e+01, 23., 1.77173729e+01, 39.,
          5.83333015e-01, 6.16666973e-01, 127., 15., 16., 5., 3., 0., 0.,
          0., 0., 0., 0., 0., 0., 0., 0., 0. ]
      - [ 0., 132., 5.24074059e+01, 0., 5.48703918e+01, 27.,
          5.91666996e-01, 4.79167014e-01, 128., 14., 0., 0., 0., 0., 5.,
          6., 2., 0., 0., 0., 0., 0., 0., 0. ]
      - [ 0., 26., 6.61538506e+00, 8., 7.41659689e+00, 13.,
          6.25000000e-01, 4.91667002e-01, 128., 12., 1., 0., 0., 0., 0.,
          0., 0., 0., 0., 0., 0., 0., 0., 0. ]
      - [ 0., 31., 8.86363602e+00, 8., 7.51541090e+00, 22.,
          6.95833027e-01, 4.25000012e-01, 128., 21., 1., 0., 0., 0., 0.,
          0., 0., 0., 0., 0., 0., 0., 0., 0. ]
      - [ 0., 34., 9.96428585e+00, 10., 8.55854702e+00, 28.,
          6.58333004e-01, 5.29166996e-01, 129., 25., 3., 0., 0., 0., 0.,
          0., 0., 0., 0., 0., 0., 0., 0., 0. ]
      - [ 0., 31., 7.94999981e+00, 10., 7.86431789e+00, 20.,
          6.58333004e-01, 5.29166996e-01, 130., 19., 1., 0., 0., 0., 0.,
          0., 0., 0., 0., 0., 0., 0., 0., 0. ]
      - [ 0., 17., 8.82142830e+00, 10., 6.12986612e+00, 28.,
          6.70832992e-01, 5.50000012e-01, 130., 28., 0., 0., 0., 0., 0.,
          0., 0., 0., 0., 0., 0., 0., 0., 0. ]
      - [ 0., 77., 1.63199997e+01, 18., 1.60267773e+01, 25.,
          4.20832992e-01, 4.79167014e-01, 131., 12., 12., 0., 0., 1., 0.,
          0., 0., 0., 0., 0., 0., 0., 0., 0. ]
      - [ 0., 65., 1.51428576e+01, 17., 1.59412184e+01, 21.,
          5.66667020e-01, 4.41666991e-01, 131., 14., 5., 1., 1., 0., 0.,
          0., 0., 0., 0., 0., 0., 0., 0., 0. ]
      - [ 0., 25., 7.85185194e+00, 8., 5.92361116e+00, 27.,
          6.49999976e-01, 4.41666991e-01, 131., 26., 1., 0., 0., 0., 0.,
          0., 0., 0., 0., 0., 0., 0., 0., 0. ]
      - [ 0., 51., 1.20909090e+01, 13., 1.20261421e+01, 22.,
          5.70833027e-01, 4.41666991e-01, 132., 16., 5., 1., 0., 0., 0.,
          0., 0., 0., 0., 0., 0., 0., 0., 0. ]
      - [ 0., 16., 1., 0., 3.87298298e+00, 16., 5.29166996e-01,
          4.04166996e-01, 133., 16., 0., 0., 0., 0., 0., 0., 0., 0., 0.,
          0., 0., 0., 0., 0. ]
      - [ 0., 20., 5.38095188e+00, 0., 6.29040194e+00, 21.,
          5.29166996e-01, 4.87500012e-01, 134., 20., 1., 0., 0., 0., 0.,
          0., 0., 0., 0., 0., 0., 0., 0., 0. ]
      - [ 0., 25., 8.47826099e+00, 10., 7.47674417e+00, 23.,
          5.04167020e-01, 4.66666996e-01, 136., 22., 1., 0., 0., 0., 0.,
          0., 0., 0., 0., 0., 0., 0., 0., 0. ]
      - [ 0., 25., 3.31818199e+00, 0., 8.35238838e+00, 22.,
          4.83332992e-01, 4.66666996e-01, 137., 19., 3., 0., 0., 0., 0.,
          0., 0., 0., 0., 0., 0., 0., 0., 0. ]
      - [ 0., 140., 2.18181820e+01, 0., 4.70624695e+01, 11.,
          5.95833004e-01, 5.87499976e-01, 0., 9., 0., 0., 0., 0., 1., 0.,
          0., 1., 0., 0., 0., 0., 0., 0. ]
      - [ 0., 230., 1.00107140e+02, 139., 8.27717743e+01, 28.,
          5.95833004e-01, 3.66667002e-01, 0., 11., 0., 0., 0., 0., 0.,
          0., 3., 2., 5., 5., 1., 0., 1., 0. ]
      - [ 0., 136., 5.20625000e+01, 45., 5.30759697e+01, 16.,
          7.58333027e-01, 5.45832992e-01, 1., 8., 0., 0., 0., 0., 5., 2.,
          1., 0., 0., 0., 0., 0., 0., 0. ]
      - [ 0., 32., 8.72727299e+00, 0., 1.06180887e+01, 11.,
          6.75000012e-01, 5.04167020e-01, 8., 9., 2., 0., 0., 0., 0., 0.,
          0., 0., 0., 0., 0., 0., 0., 0. ]
      - [ 0., 50., 2.02500000e+01, 14., 2.11783104e+01, 12.,
          6.70832992e-01, 5.08333027e-01, 9., 6., 2., 4., 0., 0., 0., 0.,
          0., 0., 0., 0., 0., 0., 0., 0. ]
      - [ 0., 41., 1.80526314e+01, 15., 1.23947086e+01, 19.,
          7.08333015e-01, 4.66666996e-01, 10., 12., 4., 3., 0., 0., 0.,
          0., 0., 0., 0., 0., 0., 0., 0., 0. ]
      - [ 0., 11., 6.76000023e+00, 9., 4.00279903e+00, 25.,
          5.66667020e-01, 7.37500012e-01, 26., 25., 0., 0., 0., 0., 0.,
          0., 0., 0., 0., 0., 0., 0., 0., 0. ]
      - [ 0., 255., 9.75806427e+01, 115., 6.48267059e+01, 31.,
          4.83332992e-01, 6.20832980e-01, 27., 8., 0., 0., 0., 0., 1.,
          8., 9., 1., 2., 0., 0., 1., 0., 1. ]
      - [ 0., 31., 7., 0., 8.77196503e+00, 19., 3.58332992e-01,
          6.75000012e-01, 39., 17., 2., 0., 0., 0., 0., 0., 0., 0., 0.,
          0., 0., 0., 0., 0. ]
      - [ 0., 20., 7., 0., 8.16333294e+00, 25., 5.04167020e-01,
          2.20833004e-01, 58., 20., 5., 0., 0., 0., 0., 0., 0., 0., 0.,
          0., 0., 0., 0., 0. ]
      - [ 0., 18., 4.84615421e+00, 0., 7.41460323e+00, 26.,
          5.91666996e-01, 2.16666996e-01, 58., 23., 3., 0., 0., 0., 0.,
          0., 0., 0., 0., 0., 0., 0., 0., 0. ]
      - [ 0., 23., 7.75000000e+00, 0., 8.84640789e+00, 28.,
          5.29166996e-01, 2.16666996e-01, 64., 22., 6., 0., 0., 0., 0.,
          0., 0., 0., 0., 0., 0., 0., 0., 0. ]
      - [ 0., 28., 2.64000010e+00, 0., 7.29865694e+00, 25.,
          2.16666996e-01, 3.41666996e-01, 78., 22., 3., 0., 0., 0., 0.,
          0., 0., 0., 0., 0., 0., 0., 0., 0. ]
      - [ 0., 20., 5.27272701e+00, 0., 7.14470720e+00, 33.,
          3.58332992e-01, 2.58332998e-01, 87., 31., 2., 0., 0., 0., 0.,
          0., 0., 0., 0., 0., 0., 0., 0., 0. ]
      - [ 0., 16., 1.11764705e+00, 0., 3.73193502e+00, 34.,
          2.37499997e-01, 3.41666996e-01, 93., 34., 0., 0., 0., 0., 0.,
          0., 0., 0., 0., 0., 0., 0., 0., 0. ]
      - [ 0., 15., 1.52941203e+00, 0., 4.23733616e+00, 34.,
          2.79166996e-01, 3.20832998e-01, 97., 34., 0., 0., 0., 0., 0.,
          0., 0., 0., 0., 0., 0., 0., 0., 0. ]
      - [ 0., 10., 5.88235021e-01, 0., 2.35294104e+00, 34.,
          2.79166996e-01, 3.20832998e-01, 98., 34., 0., 0., 0., 0., 0.,
          0., 0., 0., 0., 0., 0., 0., 0., 0. ]
      - [ 0., 124., 7.66800003e+01, 118., 5.75609016e+01, 25.,
          7.79166996e-01, 4.45832998e-01, 100., 9., 0., 0., 0., 0., 0.,
          9., 7., 0., 0., 0., 0., 0., 0., 0. ]
      - [ 0., 105., 5.44090919e+01, 95., 4.97079277e+01, 22.,
          4.66666996e-01, 3.37500006e-01, 102., 10., 0., 0., 0., 0., 10.,
          2., 0., 0., 0., 0., 0., 0., 0., 0. ]
      - [ 0., 51., 2.17777786e+01, 0., 2.43893318e+01, 9.,
          2.45832995e-01, 5.04167020e-01, 104., 5., 0., 4., 0., 0., 0.,
          0., 0., 0., 0., 0., 0., 0., 0., 0. ]
      - [ 0., 48., 1.28000002e+01, 15., 1.19039011e+01, 35.,
          6.95833027e-01, 3.70833009e-01, 116., 25., 8., 2., 0., 0., 0.,
          0., 0., 0., 0., 0., 0., 0., 0., 0. ]
      - [ 0., 62., 1.76562500e+01, 16., 1.97904797e+01, 32.,
          6.91667020e-01, 3.66667002e-01, 117., 18., 9., 1., 4., 0., 0.,
          0., 0., 0., 0., 0., 0., 0., 0., 0. ]
      - [ 0., 31., 1.96969700e+00, 0., 6.76212597e+00, 33.,
          3.20832998e-01, 3.62500012e-01, 119., 31., 2., 0., 0., 0., 0.,
          0., 0., 0., 0., 0., 0., 0., 0., 0. ]
      - [ 0., 48., 5.80645180e+00, 0., 1.37358007e+01, 31.,
          3.62500012e-01, 3.41666996e-01, 119., 26., 3., 2., 0., 0., 0.,
          0., 0., 0., 0., 0., 0., 0., 0., 0. ]
      - [ 0., 51., 5., 0., 14., 17., 3.16666991e-01, 4.00000006e-01,
          120., 15., 1., 1., 0., 0., 0., 0., 0., 0., 0., 0., 0., 0., 0.,
          0. ]
      - [ 0., 47., 1.84444447e+01, 24., 1.54328489e+01, 27.,
          3.58332992e-01, 3.70833009e-01, 120., 10., 15., 2., 0., 0., 0.,
          0., 0., 0., 0., 0., 0., 0., 0., 0. ]
      - [ 0., 78., 5.80625000e+01, 64., 2.29059734e+01, 16.,
          6.83332980e-01, 4.87500012e-01, 123., 2., 0., 0., 9., 5., 0.,
          0., 0., 0., 0., 0., 0., 0., 0., 0. ]
      - [ 0., 23., 7.37500000e+00, 0., 9.74599266e+00, 8.,
          4.58332986e-01, 4.29167002e-01, 126., 6., 2., 0., 0., 0., 0.,
          0., 0., 0., 0., 0., 0., 0., 0., 0. ]
      - [ 0., 51., 4.58333302e+00, 0., 1.26455412e+01, 24.,
          4.00000006e-01, 4.04166996e-01, 130., 21., 2., 1., 0., 0., 0.,
          0., 0., 0., 0., 0., 0., 0., 0., 0. ]
      - [ 0., 108., 2.51875000e+01, 0., 4.37224464e+01, 16.,
          5.37500024e-01, 4.83332992e-01, 130., 12., 0., 0., 0., 0., 2.,
          2., 0., 0., 0., 0., 0., 0., 0., 0. ]
      - [ 0., 96., 4.44687500e+01, 59., 3.57412453e+01, 32.,
          4.58332986e-01, 5.62500000e-01, 131., 12., 0., 1., 8., 10., 1.,
          0., 0., 0., 0., 0., 0., 0., 0., 0. ]
      - [ 0., 31., 1.46428576e+01, 14., 1.13804789e+01, 14.,
          5.50000012e-01, 4.87500012e-01, 131., 9., 5., 0., 0., 0., 0.,
          0., 0., 0., 0., 0., 0., 0., 0., 0. ]
      - [ 0., 77., 8.42307663e+00, 0., 2.33422241e+01, 26.,
          5.91666996e-01, 3.62500012e-01, 132., 23., 0., 0., 0., 3., 0.,
          0., 0., 0., 0., 0., 0., 0., 0., 0. ]
      - [ 0., 34., 12., 14., 9.50597858e+00, 22., 5.45832992e-01,
          4.83332992e-01, 134., 18., 4., 0., 0., 0., 0., 0., 0., 0., 0.,
          0., 0., 0., 0., 0. ]
      - [ 0., 17., 3.87500000e+00, 0., 6.26373482e+00, 16.,
          4.87500012e-01, 4.91667002e-01, 135., 16., 0., 0., 0., 0., 0.,
          0., 0., 0., 0., 0., 0., 0., 0., 0. ]
      - [ 0., 21., 9.42857170e+00, 9., 7.04794121e+00, 14.,
          5.04167020e-01, 4.91667002e-01, 135., 11., 3., 0., 0., 0., 0.,
          0., 0., 0., 0., 0., 0., 0., 0., 0. ]
      - [ 0., 51., 3.85185194e+00, 0., 1.03948126e+01, 27.,
          4.45832998e-01, 4.66666996e-01, 136., 26., 0., 1., 0., 0., 0.,
          0., 0., 0., 0., 0., 0., 0., 0., 0. ]
      - [ 0., 33., 6.80000019e+00, 0., 9.40531731e+00, 20.,
          5.29166996e-01, 4.87500012e-01, 136., 18., 2., 0., 0., 0., 0.,
          0., 0., 0., 0., 0., 0., 0., 0., 0. ]
      - [ 0., 37., 2.02800007e+01, 28., 1.41859646e+01, 25.,
          4.83332992e-01, 4.70833004e-01, 137., 8., 16., 1., 0., 0., 0.,
          0., 0., 0., 0., 0., 0., 0., 0., 0. ]
      - [ 0., 44., 1.10666666e+01, 0., 1.33039675e+01, 15.,
          4.66666996e-01, 4.41666991e-01, 138., 10., 4., 1., 0., 0., 0.,
          0., 0., 0., 0., 0., 0., 0., 0., 0. ]
      - [ 0., 18., 7.95833302e+00, 12., 7.44691801e+00, 24.,
          4.87500012e-01, 4.49999988e-01, 140., 23., 1., 0., 0., 0., 0.,
          0., 0., 0., 0., 0., 0., 0., 0., 0. ]
      - [ 0., 17., 1.50000000e+00, 0., 4.54422712e+00, 20.,
          4.87500012e-01, 4.66666996e-01, 140., 20., 0., 0., 0., 0., 0.,
          0., 0., 0., 0., 0., 0., 0., 0., 0. ]
      - [ 0., 17., 4.59999990e+00, 0., 6.33087683e+00, 25.,
          5.08333027e-01, 4.66666996e-01, 140., 25., 0., 0., 0., 0., 0.,
          0., 0., 0., 0., 0., 0., 0., 0., 0. ]
      - [ 0., 57., 1.43999996e+01, 6., 2.05143852e+01, 10.,
          6.95833027e-01, 5.24999976e-01, 24., 8., 0., 1., 1., 0., 0.,
          0., 0., 0., 0., 0., 0., 0., 0., 0. ]
      - [ 0., 134., 6.02592583e+01, 0., 6.25990143e+01, 27.,
          4.20832992e-01, 3.16666991e-01, 43., 14., 0., 0., 0., 0., 0.,
          0., 13., 0., 0., 0., 0., 0., 0., 0. ]
      - [ 0., 107., 5.14166679e+01, 49., 5.14505577e+01, 24.,
          7.16666996e-01, 2.95832992e-01, 51., 12., 0., 0., 0., 0., 6.,
          6., 0., 0., 0., 0., 0., 0., 0., 0. ]
      - [ 0., 204., 1.18500000e+02, 187., 9.40054245e+01, 26.,
          7.45832980e-01, 6.16666973e-01, 58., 10., 0., 0., 0., 0., 0.,
          0., 0., 0., 1., 2., 13., 0., 0., 0. ]
      - [ 0., 208., 1.30478256e+02, 199., 9.53551102e+01, 23.,
          7.87500024e-01, 6.04166985e-01, 58., 8., 0., 0., 0., 0., 0.,
          0., 0., 0., 0., 1., 13., 1., 0., 0. ]
      - [ 0., 206., 1.28119995e+02, 196., 9.61342087e+01, 25.,
          7.83333004e-01, 6.04166985e-01, 59., 9., 0., 0., 0., 0., 0.,
          0., 0., 0., 0., 0., 15., 1., 0., 0. ]
      - [ 0., 210., 1.45559998e+02, 187., 8.23097000e+01, 25.,
          7.04167008e-01, 6.41667008e-01, 61., 6., 0., 0., 0., 0., 0.,
          0., 0., 0., 1., 6., 11., 1., 0., 0. ]
      - [ 0., 196., 8.93809509e+01, 0., 9.40022659e+01, 21.,
          7.79166996e-01, 5.91666996e-01, 61., 11., 0., 0., 0., 0., 0.,
          0., 0., 0., 1., 2., 7., 0., 0., 0. ]
      - [ 0., 33., 1.15555553e+01, 6., 1.26193085e+01, 18.,
          1.95832998e-01, 4.62500006e-01, 68., 12., 6., 0., 0., 0., 0.,
          0., 0., 0., 0., 0., 0., 0., 0., 0. ]
      - [ 0., 212., 3.89545441e+01, 0., 7.29442368e+01, 22.,
          6.70832992e-01, 5.41666985e-01, 69., 17., 0., 0., 0., 0., 0.,
          0., 0., 2., 1., 0., 1., 1., 0., 0. ]
      - [ 0., 65., 1.55000000e+01, 16., 1.72872791e+01, 20.,
          8.41666996e-01, 4.87500012e-01, 77., 13., 4., 2., 1., 0., 0.,
          0., 0., 0., 0., 0., 0., 0., 0., 0. ]
      - [ 0., 226., 1.52463409e+02, 212., 9.82426300e+01, 41.,
          7.33332992e-01, 5.91666996e-01, 78., 12., 0., 0., 0., 0., 0.,
          0., 0., 0., 0., 0., 1., 23., 5., 0. ]
      - [ 0., 242., 9.55000000e+01, 0., 1.08219559e+02, 18.,
          6.79166973e-01, 5.33333004e-01, 79., 10., 0., 0., 0., 0., 0.,
          0., 0., 0., 1., 0., 2., 1., 2., 2. ]
      - [ 0., 231., 1.52754715e+02, 210., 9.62025986e+01, 53.,
          7.33332992e-01, 5.91666996e-01, 79., 15., 0., 0., 0., 0., 0.,
          0., 0., 0., 0., 0., 4., 28., 6., 0. ]
      - [ 0., 28., 1.62857103e+00, 0., 5.78710699e+00, 35.,
          1.74999997e-01, 4.41666991e-01, 80., 33., 2., 0., 0., 0., 0.,
          0., 0., 0., 0., 0., 0., 0., 0., 0. ]
      - [ 0., 238., 5.74375000e+01, 0., 9.95458221e+01, 16.,
          6.83332980e-01, 5.37500024e-01, 80., 12., 0., 0., 0., 0., 0.,
          0., 0., 0., 0., 0., 0., 1., 3., 0. ]
      - [ 0., 39., 1.21999998e+01, 8., 1.30023079e+01, 20.,
          8.41666996e-01, 4.91667002e-01, 82., 11., 8., 1., 0., 0., 0.,
          0., 0., 0., 0., 0., 0., 0., 0., 0. ]
      - [ 0., 191., 1.33454544e+02, 184., 8.21455078e+01, 11.,
          3.79166991e-01, 6.33333027e-01, 83., 3., 0., 0., 0., 0., 0.,
          0., 0., 0., 1., 4., 3., 0., 0., 0. ]
      - [ 0., 98., 5.18571434e+01, 53., 4.26461487e+01, 7.,
          4.66666996e-01, 3.62500012e-01, 83., 2., 1., 0., 1., 0., 3.,
          0., 0., 0., 0., 0., 0., 0., 0., 0. ]
      - [ 0., 190., 9.25000000e+01, 86., 9.26035461e+01, 12.,
          3.75000000e-01, 6.33333027e-01, 84., 6., 0., 0., 0., 0., 0.,
          0., 0., 0., 0., 3., 3., 0., 0., 0. ]
      - [ 0., 15., 8.76923084e+00, 10., 4.19988680e+00, 26.,
          6.12500012e-01, 5.66667020e-01, 85., 26., 0., 0., 0., 0., 0.,
          0., 0., 0., 0., 0., 0., 0., 0., 0. ]
      - [ 0., 81., 1.25000000e+01, 10., 1.47845640e+01, 30.,
          5.58332980e-01, 5.33333004e-01, 86., 26., 3., 0., 0., 1., 0.,
          0., 0., 0., 0., 0., 0., 0., 0., 0. ]
      - [ 0., 179., 1.19823532e+02, 165., 7.75425797e+01, 17.,
          2.70832986e-01, 5.33333004e-01, 87., 5., 0., 0., 0., 0., 0.,
          0., 0., 0., 7., 5., 0., 0., 0., 0. ]
      - [ 0., 65., 1.08750000e+01, 11., 1.30074100e+01, 24.,
          6.12500012e-01, 5.91666996e-01, 91., 22., 1., 0., 1., 0., 0.,
          0., 0., 0., 0., 0., 0., 0., 0., 0. ]
      - [ 0., 15., 3.94737005e-01, 0., 2.40108991e+00, 38.,
          4.04166996e-01, 2.37499997e-01, 96., 38., 0., 0., 0., 0., 0.,
          0., 0., 0., 0., 0., 0., 0., 0., 0. ]
      - [ 0., 163., 8.18709641e+01, 97., 5.56630096e+01, 31.,
          7.37500012e-01, 2.79166996e-01, 97., 9., 0., 0., 1., 0., 6.,
          5., 8., 1., 1., 0., 0., 0., 0., 0. ]
      - [ 0., 168., 8.94642868e+01, 125., 6.78472443e+01, 28.,
          8.00000012e-01, 3.58332992e-01, 97., 10., 0., 0., 0., 0., 0.,
          2., 8., 4., 4., 0., 0., 0., 0., 0. ]
      - [ 0., 169., 1.38161285e+02, 159., 5.34428215e+01, 31.,
          5.08333027e-01, 4.83332992e-01, 99., 4., 0., 0., 0., 0., 0.,
          0., 0., 6., 21., 0., 0., 0., 0., 0. ]
      - [ 0., 181., 1.37500000e+02, 164., 6.39564438e+01, 34.,
          5.08333027e-01, 4.25000012e-01, 114., 6., 0., 0., 0., 0., 0.,
          0., 0., 0., 20., 8., 0., 0., 0., 0. ]
      - [ 0., 65., 1.07500000e+01, 0., 2.16260834e+01, 8.,
          2.95832992e-01, 5.08333027e-01, 119., 6., 1., 0., 1., 0., 0.,
          0., 0., 0., 0., 0., 0., 0., 0., 0. ]
      - [ 0., 47., 2.29999995e+00, 0., 9.19111919e+00, 30.,
          3.00000012e-01, 4.62500006e-01, 126., 28., 1., 1., 0., 0., 0.,
          0., 0., 0., 0., 0., 0., 0., 0., 0. ]
      - [ 0., 16., 2., 0., 5.29150200e+00, 8., 4.41666991e-01,
          6.12500012e-01, 126., 8., 0., 0., 0., 0., 0., 0., 0., 0., 0.,
          0., 0., 0., 0., 0. ]
      - [ 0., 122., 4.86842117e+01, 0., 5.72226067e+01, 19.,
          3.62500012e-01, 4.79167014e-01, 130., 11., 0., 0., 0., 0., 0.,
          5., 3., 0., 0., 0., 0., 0., 0., 0. ]
      - [ 0., 101., 4.26071434e+01, 0., 4.59132233e+01, 28.,
          5.58332980e-01, 5.08333027e-01, 130., 15., 0., 0., 0., 1., 12.,
          0., 0., 0., 0., 0., 0., 0., 0., 0. ]
      - [ 0., 66., 1.12058821e+01, 0., 1.78156891e+01, 34.,
          5.20833015e-01, 4.95833009e-01, 131., 23., 6., 3., 2., 0., 0.,
          0., 0., 0., 0., 0., 0., 0., 0., 0. ]
      - [ 0., 6., 5.00000000e-01, 0., 1.65831196e+00, 12.,
          4.62500006e-01, 5.00000000e-01, 132., 12., 0., 0., 0., 0., 0.,
          0., 0., 0., 0., 0., 0., 0., 0., 0. ]
      - [ 0., 74., 8.31999969e+00, 0., 2.26233864e+01, 25.,
          6.12500012e-01, 5.08333027e-01, 135., 22., 0., 0., 1., 2., 0.,
          0., 0., 0., 0., 0., 0., 0., 0., 0. ]
      - [ 0., 137., 2.94444447e+01, 0., 5.51263428e+01, 9.,
          7.41666973e-01, 5.87499976e-01, 2., 7., 0., 0., 0., 0., 0., 0.,
          1., 1., 0., 0., 0., 0., 0., 0. ]
      - [ 0., 61., 2.74666672e+01, 34., 2.65226116e+01, 15.,
          7.16666996e-01, 5.29166996e-01, 5., 7., 1., 2., 5., 0., 0., 0.,
          0., 0., 0., 0., 0., 0., 0., 0. ]
      - [ 0., 67., 2.11428566e+01, 24., 2.10199127e+01, 14.,
          7.16666996e-01, 3.41666996e-01, 10., 6., 5., 2., 1., 0., 0.,
          0., 0., 0., 0., 0., 0., 0., 0., 0. ]
      - [ 0., 78., 4.35294113e+01, 70., 3.65144882e+01, 17.,
          7.91666985e-01, 4.25000012e-01, 23., 7., 0., 0., 1., 9., 0.,
          0., 0., 0., 0., 0., 0., 0., 0., 0. ]
      - [ 0., 86., 5.40999985e+01, 80., 3.83121834e+01, 30.,
          4.45832998e-01, 3.58332992e-01, 25., 10., 0., 0., 0., 19., 1.,
          0., 0., 0., 0., 0., 0., 0., 0., 0. ]
      - [ 0., 98., 5.96562500e+01, 76., 3.48636703e+01, 32.,
          4.66666996e-01, 3.62500012e-01, 31., 8., 0., 0., 0., 19., 5.,
          0., 0., 0., 0., 0., 0., 0., 0., 0. ]
      - [ 0., 44., 26., 25., 1.49184446e+01, 25., 8.00000012e-01,
          3.58332992e-01, 31., 5., 11., 9., 0., 0., 0., 0., 0., 0., 0.,
          0., 0., 0., 0., 0. ]
      - [ 0., 87., 3.52272720e+01, 54., 3.27246513e+01, 22.,
          5.29166996e-01, 2.37499997e-01, 44., 10., 0., 0., 10., 1., 1.,
          0., 0., 0., 0., 0., 0., 0., 0., 0. ]
      - [ 0., 95., 5.20277786e+01, 74., 3.56202850e+01, 36.,
          4.87500012e-01, 3.58332992e-01, 47., 11., 0., 1., 3., 18., 3.,
          0., 0., 0., 0., 0., 0., 0., 0., 0. ]
      - [ 0., 79., 4.66086960e+01, 74., 3.74058113e+01, 23.,
          8.20833027e-01, 3.79166991e-01, 47., 9., 0., 0., 0., 14., 0.,
          0., 0., 0., 0., 0., 0., 0., 0., 0. ]
      - [ 0., 81., 3.83750000e+01, 35., 3.84673157e+01, 24.,
          8.00000012e-01, 5.24999976e-01, 50., 12., 0., 0., 0., 12., 0.,
          0., 0., 0., 0., 0., 0., 0., 0., 0. ]
      - [ 0., 31., 7.46153784e+00, 0., 1.02852802e+01, 13.,
          2.12500006e-01, 5.04167020e-01, 58., 11., 2., 0., 0., 0., 0.,
          0., 0., 0., 0., 0., 0., 0., 0., 0. ]
      - [ 0., 26., 6.67857122e+00, 0., 9.82363605e+00, 28.,
          3.58332992e-01, 2.58332998e-01, 65., 19., 9., 0., 0., 0., 0.,
          0., 0., 0., 0., 0., 0., 0., 0., 0. ]
      - [ 0., 86., 6.44800034e+01, 80., 3.24001465e+01, 25.,
          8.54166985e-01, 3.83332998e-01, 66., 5., 0., 0., 0., 18., 2.,
          0., 0., 0., 0., 0., 0., 0., 0., 0. ]
      - [ 0., 81., 4.18205147e+01, 47., 2.52372055e+01, 39.,
          4.58332986e-01, 2.75000006e-01, 75., 8., 6., 8., 12., 5., 0.,
          0., 0., 0., 0., 0., 0., 0., 0., 0. ]
      - [ 0., 249., 8.65454559e+01, 102., 6.70608444e+01, 22.,
          5.33333004e-01, 2.20833004e-01, 86., 7., 0., 0., 0., 0., 4.,
          5., 2., 2., 1., 0., 0., 0., 0., 1. ]
      - [ 0., 85., 3.78750000e+01, 29., 3.82364502e+01, 24.,
          8.20833027e-01, 5.24999976e-01, 99., 12., 0., 0., 2., 10., 0.,
          0., 0., 0., 0., 0., 0., 0., 0., 0. ]
      - [ 0., 93., 5.81666679e+01, 80., 3.83449974e+01, 30.,
          4.25000012e-01, 3.16666991e-01, 104., 9., 0., 0., 0., 15., 6.,
          0., 0., 0., 0., 0., 0., 0., 0., 0. ]
      - [ 0., 34., 2.03846097e+00, 0., 7.36144209e+00, 26.,
          2.58332998e-01, 3.37500006e-01, 105., 24., 2., 0., 0., 0., 0.,
          0., 0., 0., 0., 0., 0., 0., 0., 0. ]
      - [ 0., 40., 1.07307692e+01, 0., 1.39960365e+01, 26.,
          7.74999976e-01, 5.66667020e-01, 118., 16., 9., 1., 0., 0., 0.,
          0., 0., 0., 0., 0., 0., 0., 0., 0. ]
      - [ 0., 96., 3.69500008e+01, 0., 4.52774506e+01, 20.,
          4.00000006e-01, 6.45833015e-01, 119., 12., 0., 0., 0., 0., 8.,
          0., 0., 0., 0., 0., 0., 0., 0., 0. ]
      - [ 0., 33., 2.40740800e+00, 0., 8.51255798e+00, 27.,
          3.00000012e-01, 4.20832992e-01, 121., 25., 2., 0., 0., 0., 0.,
          0., 0., 0., 0., 0., 0., 0., 0., 0. ]
      - [ 0., 24., 6.66666985e-01, 0., 3.94405293e+00, 36.,
          4.25000012e-01, 3.20832998e-01, 122., 35., 1., 0., 0., 0., 0.,
          0., 0., 0., 0., 0., 0., 0., 0., 0. ]
      - [ 0., 28., 8.33333302e+00, 0., 9.98888302e+00, 9.,
          3.79166991e-01, 4.83332992e-01, 123., 8., 1., 0., 0., 0., 0.,
          0., 0., 0., 0., 0., 0., 0., 0., 0. ]
      - [ 0., 45., 2.46923084e+01, 29., 1.66520252e+01, 13.,
          4.25000012e-01, 4.87500012e-01, 125., 4., 5., 4., 0., 0., 0.,
          0., 0., 0., 0., 0., 0., 0., 0., 0. ]
      - [ 0., 36., 2.58928566e+01, 33., 1.35892267e+01, 28.,
          6.95833027e-01, 5.91666996e-01, 125., 6., 20., 2., 0., 0., 0.,
          0., 0., 0., 0., 0., 0., 0., 0., 0. ]
      - [ 0., 31., 2.22999992e+01, 27., 1.12565536e+01, 20.,
          6.91667020e-01, 5.87499976e-01, 127., 4., 16., 0., 0., 0., 0.,
          0., 0., 0., 0., 0., 0., 0., 0., 0. ]
      - [ 0., 17., 8.39999962e+00, 14., 7.50999403e+00, 25.,
          7.37500012e-01, 5.29166996e-01, 128., 25., 0., 0., 0., 0., 0.,
          0., 0., 0., 0., 0., 0., 0., 0., 0. ]
      - [ 0., 30., 1.88750000e+01, 28., 1.33831749e+01, 24.,
          6.70832992e-01, 5.54166973e-01, 129., 8., 16., 0., 0., 0., 0.,
          0., 0., 0., 0., 0., 0., 0., 0., 0. ]
      - [ 0., 36., 2.60952377e+01, 31., 1.27723837e+01, 21.,
          6.54166996e-01, 4.41666991e-01, 130., 4., 15., 2., 0., 0., 0.,
          0., 0., 0., 0., 0., 0., 0., 0., 0. ]
      - [ 0., 34., 14., 0., 1.55080624e+01, 20., 6.54166996e-01,
          4.58332986e-01, 130., 11., 9., 0., 0., 0., 0., 0., 0., 0., 0.,
          0., 0., 0., 0., 0. ]
      - [ 0., 30., 1.48846149e+01, 25., 1.38267488e+01, 26.,
          6.70832992e-01, 5.33333004e-01, 130., 12., 14., 0., 0., 0., 0.,
          0., 0., 0., 0., 0., 0., 0., 0., 0. ]
      - [ 0., 36., 1.26400003e+01, 0., 1.36290283e+01, 25.,
          6.12500012e-01, 5.87499976e-01, 131., 14., 10., 1., 0., 0., 0.,
          0., 0., 0., 0., 0., 0., 0., 0., 0. ]
      - [ 0., 35., 1.97777786e+01, 31., 1.55690422e+01, 27.,
          6.12500012e-01, 5.45832992e-01, 132., 11., 14., 2., 0., 0., 0.,
          0., 0., 0., 0., 0., 0., 0., 0., 0. ]
      - [ 0., 99., 2.93999996e+01, 0., 4.49125824e+01, 20.,
          4.41666991e-01, 5.08333027e-01, 134., 14., 0., 0., 0., 0., 6.,
          0., 0., 0., 0., 0., 0., 0., 0., 0. ]
      - [ 0., 55., 1.83870964e+01, 0., 2.13128433e+01, 31.,
          5.08333027e-01, 4.62500006e-01, 134., 17., 3., 9., 2., 0., 0.,
          0., 0., 0., 0., 0., 0., 0., 0., 0. ]
      - [ 0., 25., 5.28571415e+00, 0., 7.01116705e+00, 21.,
          5.91666996e-01, 4.83332992e-01, 134., 19., 2., 0., 0., 0., 0.,
          0., 0., 0., 0., 0., 0., 0., 0., 0. ]
      - [ 0., 50., 2.43589745e+01, 28., 1.62362156e+01, 39.,
          4.62500006e-01, 4.25000012e-01, 135., 10., 18., 11., 0., 0.,
          0., 0., 0., 0., 0., 0., 0., 0., 0., 0. ]
      - [ 0., 38., 2.23055553e+01, 30., 1.49440060e+01, 36.,
          5.91666996e-01, 5.29166996e-01, 135., 11., 22., 3., 0., 0., 0.,
          0., 0., 0., 0., 0., 0., 0., 0., 0. ]
      - [ 0., 33., 2.16285706e+01, 28., 1.15017653e+01, 35.,
          5.91666996e-01, 5.24999976e-01, 136., 9., 26., 0., 0., 0., 0.,
          0., 0., 0., 0., 0., 0., 0., 0., 0. ]
      - [ 0., 34., 2.02999992e+01, 28., 1.35576544e+01, 20.,
          5.62500000e-01, 5.24999976e-01, 137., 6., 14., 0., 0., 0., 0.,
          0., 0., 0., 0., 0., 0., 0., 0., 0. ]
      - [ 0., 30., 8.42105293e+00, 0., 1.04191914e+01, 19.,
          5.29166996e-01, 5.08333027e-01, 138., 13., 6., 0., 0., 0., 0.,
          0., 0., 0., 0., 0., 0., 0., 0., 0. ]
      - [ 0., 22., 2.95454502e+00, 0., 7.43747997e+00, 22.,
          5.91666996e-01, 5.29166996e-01, 138., 19., 3., 0., 0., 0., 0.,
          0., 0., 0., 0., 0., 0., 0., 0., 0. ]
      - [ 0., 16., 1.24000001e+00, 0., 4.20742178e+00, 25.,
          5.50000012e-01, 5.29166996e-01, 140., 25., 0., 0., 0., 0., 0.,
          0., 0., 0., 0., 0., 0., 0., 0., 0. ]
      - [ 0., 10., 1.03999996e+00, 0., 2.84928107e+00, 25.,
          5.50000012e-01, 5.50000012e-01, 140., 25., 0., 0., 0., 0., 0.,
          0., 0., 0., 0., 0., 0., 0., 0., 0. ]
      - [ 0., 11., 4.39999998e-01, 0., 2.15555096e+00, 25.,
          5.70833027e-01, 5.29166996e-01, 140., 25., 0., 0., 0., 0., 0.,
          0., 0., 0., 0., 0., 0., 0., 0., 0. ]
      - [ 0., 110., 8.68000031e+00, 0., 2.94383698e+01, 25.,
          6.54166996e-01, 4.25000012e-01, 2., 23., 0., 0., 0., 0., 0.,
          2., 0., 0., 0., 0., 0., 0., 0., 0. ]
      - [ 0., 138., 6., 0., 2.81424942e+01, 23., 6.49999976e-01,
          6.29167020e-01, 3., 22., 0., 0., 0., 0., 0., 0., 0., 1., 0.,
          0., 0., 0., 0., 0. ]
      - [ 0., 248., 1.11607140e+02, 153., 7.95834427e+01, 28.,
          6.29167020e-01, 3.62500012e-01, 6., 9., 0., 0., 0., 0., 0., 0.,
          0., 5., 10., 1., 2., 0., 0., 1. ]
      - [ 0., 67., 3.21578941e+01, 55., 3.05894089e+01, 19.,
          7.50000000e-01, 3.83332998e-01, 14., 9., 0., 0., 10., 0., 0.,
          0., 0., 0., 0., 0., 0., 0., 0., 0. ]
      - [ 0., 98., 8.41034470e+01, 93., 2.87574215e+01, 29.,
          7.58333027e-01, 5.87499976e-01, 20., 3., 0., 0., 0., 0., 26.,
          0., 0., 0., 0., 0., 0., 0., 0., 0. ]
      - [ 0., 95., 4.60833321e+01, 43., 4.61229477e+01, 24.,
          7.37500012e-01, 4.00000006e-01, 28., 12., 0., 0., 0., 0., 12.,
          0., 0., 0., 0., 0., 0., 0., 0., 0. ]
      - [ 0., 100., 4.82916679e+01, 46., 4.83127632e+01, 24.,
          6.95833027e-01, 3.16666991e-01, 29., 12., 0., 0., 0., 0., 12.,
          0., 0., 0., 0., 0., 0., 0., 0., 0. ]
      - [ 0., 29., 8.81250000e+00, 0., 1.30777426e+01, 16.,
          4.87500012e-01, 4.45832998e-01, 43., 11., 5., 0., 0., 0., 0.,
          0., 0., 0., 0., 0., 0., 0., 0., 0. ]
      - [ 0., 41., 2.56000004e+01, 28., 1.27353840e+01, 40.,
          3.20832998e-01, 5.08333027e-01, 53., 7., 21., 12., 0., 0., 0.,
          0., 0., 0., 0., 0., 0., 0., 0., 0. ]
      - [ 0., 62., 3.00416660e+01, 29., 3.00520096e+01, 24.,
          5.91666996e-01, 3.16666991e-01, 58., 12., 0., 0., 12., 0., 0.,
          0., 0., 0., 0., 0., 0., 0., 0., 0. ]
      - [ 0., 46., 2.10909100e+01, 18., 2.11915703e+01, 22.,
          2.37499997e-01, 5.62500000e-01, 63., 11., 0., 11., 0., 0., 0.,
          0., 0., 0., 0., 0., 0., 0., 0., 0. ]
      - [ 0., 68., 4.52666664e+01, 63., 2.97455139e+01, 30.,
          2.79166996e-01, 5.87499976e-01, 69., 9., 0., 0., 21., 0., 0.,
          0., 0., 0., 0., 0., 0., 0., 0., 0. ]
      - [ 0., 42., 1.98461533e+01, 19., 1.98623962e+01, 26.,
          4.25000012e-01, 4.66666996e-01, 78., 13., 0., 13., 0., 0., 0.,
          0., 0., 0., 0., 0., 0., 0., 0., 0. ]
      - [ 0., 54., 2.35769234e+01, 21., 2.36808472e+01, 26.,
          4.04166996e-01, 4.62500006e-01, 81., 13., 0., 12., 1., 0., 0.,
          0., 0., 0., 0., 0., 0., 0., 0., 0. ]
      - [ 0., 33., 1.43333330e+01, 0., 1.50628309e+01, 21.,
          5.70833027e-01, 4.20832992e-01, 85., 11., 10., 0., 0., 0., 0.,
          0., 0., 0., 0., 0., 0., 0., 0., 0. ]
      - [ 0., 60., 2.43999996e+01, 0., 2.64972954e+01, 15.,
          7.08333015e-01, 2.79166996e-01, 87., 8., 0., 3., 4., 0., 0.,
          0., 0., 0., 0., 0., 0., 0., 0., 0. ]
      - [ 0., 91., 7.82083359e+01, 86., 2.40641136e+01, 24.,
          8.20833027e-01, 6.29167020e-01, 88., 2., 0., 0., 0., 9., 13.,
          0., 0., 0., 0., 0., 0., 0., 0., 0. ]
      - [ 0., 67., 2.74736843e+01, 0., 3.22284088e+01, 19.,
          7.16666996e-01, 4.62500006e-01, 89., 11., 0., 0., 8., 0., 0.,
          0., 0., 0., 0., 0., 0., 0., 0., 0. ]
      - [ 0., 43., 7.08333302e+00, 0., 1.58401299e+01, 24.,
          8.62500012e-01, 5.29166996e-01, 93., 20., 0., 4., 0., 0., 0.,
          0., 0., 0., 0., 0., 0., 0., 0., 0. ]
      - [ 0., 68., 4.11250000e+01, 64., 3.18751640e+01, 24.,
          4.66666996e-01, 6.54166996e-01, 98., 9., 0., 0., 15., 0., 0.,
          0., 0., 0., 0., 0., 0., 0., 0., 0. ]
      - [ 0., 71., 3.76250000e+01, 42., 1.87390251e+01, 24.,
          7.79166996e-01, 4.62500006e-01, 98., 4., 1., 15., 3., 1., 0.,
          0., 0., 0., 0., 0., 0., 0., 0., 0. ]
      - [ 0., 127., 5.37647057e+01, 0., 5.72410088e+01, 17.,
          5.62500000e-01, 4.08333004e-01, 101., 9., 0., 0., 0., 0., 0.,
          6., 2., 0., 0., 0., 0., 0., 0., 0. ]
      - [ 0., 38., 1.35454550e+01, 0., 1.63198910e+01, 22.,
          6.33333027e-01, 2.95832992e-01, 101., 13., 8., 1., 0., 0., 0.,
          0., 0., 0., 0., 0., 0., 0., 0., 0. ]
      - [ 0., 67., 2.51904755e+01, 0., 2.72861710e+01, 21.,
          6.91667020e-01, 3.79166991e-01, 101., 11., 0., 4., 6., 0., 0.,
          0., 0., 0., 0., 0., 0., 0., 0., 0. ]
      - [ 0., 59., 2.95172405e+01, 55., 2.85290184e+01, 29.,
          4.45832998e-01, 6.08332992e-01, 102., 14., 0., 0., 15., 0., 0.,
          0., 0., 0., 0., 0., 0., 0., 0., 0. ]
      - [ 0., 91., 4.35000000e+01, 38., 4.35775185e+01, 24.,
          4.04166996e-01, 2.95832992e-01, 104., 12., 0., 0., 0., 2., 10.,
          0., 0., 0., 0., 0., 0., 0., 0., 0. ]
      - [ 0., 65., 2.25185184e+01, 26., 1.31187468e+01, 27.,
          6.33333027e-01, 4.49999988e-01, 104., 5., 21., 0., 1., 0., 0.,
          0., 0., 0., 0., 0., 0., 0., 0., 0. ]
      - [ 0., 28., 1.95806446e+01, 26., 1.15807800e+01, 31.,
          6.91667020e-01, 4.20832992e-01, 104., 8., 23., 0., 0., 0., 0.,
          0., 0., 0., 0., 0., 0., 0., 0., 0. ]
      - [ 0., 28., 2.13870964e+01, 26., 1.05086060e+01, 31.,
          6.95833027e-01, 4.41666991e-01, 105., 6., 25., 0., 0., 0., 0.,
          0., 0., 0., 0., 0., 0., 0., 0., 0. ]
      - [ 0., 68., 4.55384598e+01, 57., 2.52468281e+01, 26.,
          5.91666996e-01, 3.16666991e-01, 106., 6., 0., 1., 19., 0., 0.,
          0., 0., 0., 0., 0., 0., 0., 0., 0. ]
      - [ 0., 134., 1.00972221e+02, 129., 5.40753021e+01, 36.,
          7.12499976e-01, 3.24999988e-01, 106., 8., 0., 0., 0., 0., 0.,
          0., 28., 0., 0., 0., 0., 0., 0., 0. ]
      - [ 0., 45., 1.84782600e+01, 0., 1.95222721e+01, 23.,
          7.37500012e-01, 4.20832992e-01, 107., 12., 3., 8., 0., 0., 0.,
          0., 0., 0., 0., 0., 0., 0., 0., 0. ]
      - [ 0., 27., 2.20303040e+01, 26., 9.33382511e+00, 33.,
          6.49999976e-01, 4.00000006e-01, 108., 5., 28., 0., 0., 0., 0.,
          0., 0., 0., 0., 0., 0., 0., 0., 0. ]
      - [ 0., 73., 2.50714283e+01, 26., 1.65592632e+01, 28.,
          6.29167020e-01, 4.49999988e-01, 109., 6., 18., 2., 1., 1., 0.,
          0., 0., 0., 0., 0., 0., 0., 0., 0. ]
      - [ 0., 50., 3.33225822e+01, 40., 1.49005022e+01, 31.,
          6.54166996e-01, 3.20832998e-01, 110., 5., 2., 24., 0., 0., 0.,
          0., 0., 0., 0., 0., 0., 0., 0., 0. ]
      - [ 0., 46., 2.76000004e+01, 32., 1.29861469e+01, 35.,
          7.04167008e-01, 3.62500012e-01, 110., 6., 21., 8., 0., 0., 0.,
          0., 0., 0., 0., 0., 0., 0., 0., 0. ]
      - [ 0., 80., 3.30526314e+01, 0., 3.51350365e+01, 19.,
          7.37500012e-01, 3.83332998e-01, 110., 10., 0., 0., 4., 5., 0.,
          0., 0., 0., 0., 0., 0., 0., 0., 0. ]
      - [ 0., 59., 2.14347820e+01, 0., 2.35535030e+01, 23.,
          6.16666973e-01, 4.41666991e-01, 112., 12., 3., 5., 3., 0., 0.,
          0., 0., 0., 0., 0., 0., 0., 0., 0. ]
      - [ 0., 28., 1.80666676e+01, 25., 1.18572998e+01, 30.,
          6.54166996e-01, 4.20832992e-01, 113., 9., 21., 0., 0., 0., 0.,
          0., 0., 0., 0., 0., 0., 0., 0., 0. ]
      - [ 0., 28., 1.66551723e+01, 26., 1.30364885e+01, 29.,
          7.16666996e-01, 4.45832998e-01, 113., 11., 18., 0., 0., 0., 0.,
          0., 0., 0., 0., 0., 0., 0., 0., 0. ]
      - [ 0., 63., 2.90740738e+01, 0., 3.01882076e+01, 27.,
          6.95833027e-01, 5.87499976e-01, 114., 14., 0., 0., 13., 0., 0.,
          0., 0., 0., 0., 0., 0., 0., 0., 0. ]
      - [ 0., 30., 2.19200001e+01, 27., 1.10087967e+01, 25.,
          6.91667020e-01, 4.20832992e-01, 115., 5., 20., 0., 0., 0., 0.,
          0., 0., 0., 0., 0., 0., 0., 0., 0. ]
      - [ 0., 33., 1.87272720e+01, 30., 1.55977325e+01, 22.,
          7.16666996e-01, 4.45832998e-01, 115., 9., 13., 0., 0., 0., 0.,
          0., 0., 0., 0., 0., 0., 0., 0., 0. ]
      - [ 0., 43., 2.74230766e+01, 36., 1.67519760e+01, 26.,
          7.54167020e-01, 4.41666991e-01, 115., 7., 1., 18., 0., 0., 0.,
          0., 0., 0., 0., 0., 0., 0., 0., 0. ]
      - [ 0., 40., 2.35185184e+01, 33., 1.67185192e+01, 27.,
          6.29167020e-01, 4.20832992e-01, 116., 9., 8., 10., 0., 0., 0.,
          0., 0., 0., 0., 0., 0., 0., 0., 0. ]
      - [ 0., 28., 1.77142849e+01, 26., 1.25438004e+01, 21.,
          6.75000012e-01, 4.20832992e-01, 116., 7., 14., 0., 0., 0., 0.,
          0., 0., 0., 0., 0., 0., 0., 0., 0. ]
      - [ 0., 39., 1.90869560e+01, 34., 1.82944832e+01, 23.,
          7.16666996e-01, 4.41666991e-01, 116., 11., 1., 11., 0., 0., 0.,
          0., 0., 0., 0., 0., 0., 0., 0., 0. ]
      - [ 0., 65., 4.10833321e+01, 60., 2.91303349e+01, 24.,
          7.50000000e-01, 3.79166991e-01, 117., 8., 0., 0., 16., 0., 0.,
          0., 0., 0., 0., 0., 0., 0., 0., 0. ]
      - [ 0., 62., 3.70869560e+01, 48., 2.26234074e+01, 23.,
          7.12499976e-01, 3.79166991e-01, 118., 6., 0., 9., 8., 0., 0.,
          0., 0., 0., 0., 0., 0., 0., 0., 0. ]
      - [ 0., 44., 2.27999992e+01, 29., 1.55507774e+01, 30.,
          6.49999976e-01, 4.25000012e-01, 119., 9., 14., 7., 0., 0., 0.,
          0., 0., 0., 0., 0., 0., 0., 0., 0. ]
      - [ 0., 29., 1.78461533e+01, 27., 1.30050058e+01, 26.,
          6.75000012e-01, 4.20832992e-01, 119., 9., 17., 0., 0., 0., 0.,
          0., 0., 0., 0., 0., 0., 0., 0., 0. ]
      - [ 0., 60., 4.04642868e+01, 45., 1.71703281e+01, 28.,
          7.16666996e-01, 4.25000012e-01, 119., 4., 0., 19., 5., 0., 0.,
          0., 0., 0., 0., 0., 0., 0., 0., 0. ]
      - [ 0., 29., 1.87199993e+01, 27., 1.28670740e+01, 25.,
          6.75000012e-01, 4.25000012e-01, 120., 8., 17., 0., 0., 0., 0.,
          0., 0., 0., 0., 0., 0., 0., 0., 0. ]
      - [ 0., 48., 2.73199997e+01, 32., 1.59717751e+01, 25.,
          6.75000012e-01, 4.41666991e-01, 121., 6., 10., 9., 0., 0., 0.,
          0., 0., 0., 0., 0., 0., 0., 0., 0. ]
      - [ 0., 69., 3.26666679e+01, 0., 3.39050980e+01, 27.,
          6.12500012e-01, 5.66667020e-01, 122., 14., 0., 0., 10., 3., 0.,
          0., 0., 0., 0., 0., 0., 0., 0., 0. ]
      - [ 0., 56., 3.00384617e+01, 42., 2.21628246e+01, 26.,
          6.49999976e-01, 4.25000012e-01, 122., 9., 0., 15., 2., 0., 0.,
          0., 0., 0., 0., 0., 0., 0., 0., 0. ]
      - [ 0., 68., 4.43600006e+01, 64., 3.04629345e+01, 25.,
          4.00000006e-01, 4.49999988e-01, 128., 8., 0., 0., 17., 0., 0.,
          0., 0., 0., 0., 0., 0., 0., 0., 0. ]
      - [ 0., 88., 4.68518524e+01, 81., 4.19582710e+01, 27.,
          6.33333027e-01, 4.41666991e-01, 130., 12., 0., 0., 0., 8., 7.,
          0., 0., 0., 0., 0., 0., 0., 0., 0. ]
      - [ 0., 82., 4.21250000e+01, 75., 3.87807007e+01, 24.,
          5.29166996e-01, 3.87499988e-01, 131., 11., 0., 0., 0., 13., 0.,
          0., 0., 0., 0., 0., 0., 0., 0., 0. ]
      - [ 0., 87., 3.75925941e+01, 0., 4.20575104e+01, 27.,
          4.20832992e-01, 4.37500000e-01, 132., 15., 0., 0., 0., 7., 5.,
          0., 0., 0., 0., 0., 0., 0., 0., 0. ]
      - [ 0., 96., 4.71851845e+01, 88., 4.55013542e+01, 27.,
          6.95833027e-01, 4.58332986e-01, 133., 13., 0., 0., 0., 0., 14.,
          0., 0., 0., 0., 0., 0., 0., 0., 0. ]
      - [ 0., 87., 5.61599998e+01, 80., 3.87078094e+01, 25.,
          4.25000012e-01, 4.66666996e-01, 134., 8., 0., 0., 0., 12., 5.,
          0., 0., 0., 0., 0., 0., 0., 0., 0. ]
      - [ 0., 94., 5.14347839e+01, 88., 4.51517487e+01, 23.,
          5.50000012e-01, 4.41666991e-01, 135., 10., 0., 0., 0., 1., 12.,
          0., 0., 0., 0., 0., 0., 0., 0., 0. ]
      - [ 0., 82., 6.17826080e+01, 78., 3.26189537e+01, 23.,
          4.62500006e-01, 4.25000012e-01, 136., 5., 0., 0., 0., 18., 0.,
          0., 0., 0., 0., 0., 0., 0., 0., 0. ]
      - [ 0., 79., 8.05263138e+00, 0., 2.34912605e+01, 19.,
          6.99999988e-01, 5.24999976e-01, 136., 17., 0., 0., 0., 2., 0.,
          0., 0., 0., 0., 0., 0., 0., 0., 0. ]
      - [ 0., 83., 4.88235283e+00, 0., 1.95294113e+01, 17.,
          6.95833027e-01, 5.50000012e-01, 136., 16., 0., 0., 0., 1., 0.,
          0., 0., 0., 0., 0., 0., 0., 0., 0. ]
      - [ 0., 39., 2.31250000e+00, 0., 8.97021961e+00, 32.,
          6.70832992e-01, 5.04167020e-01, 137., 30., 0., 2., 0., 0., 0.,
          0., 0., 0., 0., 0., 0., 0., 0., 0. ]
      - [ 0., 57., 1.10769234e+01, 0., 1.69726543e+01, 13.,
          5.45832992e-01, 5.04167020e-01, 138., 9., 3., 0., 1., 0., 0.,
          0., 0., 0., 0., 0., 0., 0., 0., 0. ]
      - [ 0., 33., 1.50000000e+00, 0., 6.87386417e+00, 22.,
          5.58332980e-01, 5.12499988e-01, 138., 21., 1., 0., 0., 0., 0.,
          0., 0., 0., 0., 0., 0., 0., 0., 0. ]
      - [ 0., 92., 1.65625000e+01, 0., 3.44999428e+01, 16.,
          6.54166996e-01, 5.70833027e-01, 138., 13., 0., 0., 0., 1., 2.,
          0., 0., 0., 0., 0., 0., 0., 0., 0. ]
      - [ 0., 88., 2.93043480e+01, 41., 2.73391495e+01, 23.,
          6.08332992e-01, 5.04167020e-01, 139., 10., 0., 7., 5., 0., 1.,
          0., 0., 0., 0., 0., 0., 0., 0., 0. ]
      - [ 0., 93., 7.19473648e+01, 87., 3.42720909e+01, 38.,
          6.12500012e-01, 5.29166996e-01, 139., 7., 0., 0., 0., 4., 27.,
          0., 0., 0., 0., 0., 0., 0., 0., 0. ]
      - [ 0., 94., 6.71304321e+01, 79., 3.16080685e+01, 23.,
          6.54166996e-01, 4.83332992e-01, 139., 4., 0., 0., 1., 13., 5.,
          0., 0., 0., 0., 0., 0., 0., 0., 0. ]
      - [ 0., 107., 66., 99., 4.81903267e+01, 26., 5.66667020e-01,
          4.41666991e-01, 140., 9., 0., 0., 0., 0., 8., 9., 0., 0., 0.,
          0., 0., 0., 0., 0. ]
      - [ 0., 102., 4.65217400e+01, 0., 4.86190796e+01, 23.,
          5.45832992e-01, 5.62500000e-01, 141., 12., 0., 0., 0., 0., 11.,
          0., 0., 0., 0., 0., 0., 0., 0., 0. ]
      - [ 0., 96., 6.69166641e+01, 85., 3.61949768e+01, 36.,
          5.24999976e-01, 4.62500006e-01, 142., 8., 0., 0., 1., 10., 17.,
          0., 0., 0., 0., 0., 0., 0., 0., 0. ]
      - [ 0., 107., 8.21250000e+01, 98., 3.69654274e+01, 24.,
          5.66667020e-01, 4.45832998e-01, 142., 4., 0., 0., 0., 0., 17.,
          3., 0., 0., 0., 0., 0., 0., 0., 0. ]
      - [ 0., 105., 4.19999981e+00, 0., 2.05757141e+01, 25.,
          5.70833027e-01, 5.50000012e-01, 142., 24., 0., 0., 0., 0., 0.,
          1., 0., 0., 0., 0., 0., 0., 0., 0. ]
      - [ 0., 91., 6.29130440e+01, 85., 3.76504669e+01, 23.,
          6.12500012e-01, 4.29167002e-01, 142., 6., 0., 0., 0., 7., 10.,
          0., 0., 0., 0., 0., 0., 0., 0., 0. ]
      - [ 0., 101., 6.79375000e+01, 88., 3.94096565e+01, 32.,
          5.91666996e-01, 4.66666996e-01, 143., 8., 0., 0., 0., 3., 21.,
          0., 0., 0., 0., 0., 0., 0., 0., 0. ]
      - [ 0., 66., 3.89393921e+01, 51., 2.63046703e+01, 33.,
          4.41666991e-01, 6.29167020e-01, 35., 10., 0., 7., 16., 0., 0.,
          0., 0., 0., 0., 0., 0., 0., 0., 0. ]
      - [ 0., 84., 5.58823547e+01, 78., 3.61270332e+01, 34.,
          4.87500012e-01, 6.33333027e-01, 37., 10., 0., 0., 0., 24., 0.,
          0., 0., 0., 0., 0., 0., 0., 0., 0. ]
      - [ 0., 57., 1.97500000e+01, 8., 2.21204090e+01, 16.,
          8.83333027e-01, 5.45832992e-01, 41., 9., 1., 4., 2., 0., 0.,
          0., 0., 0., 0., 0., 0., 0., 0., 0. ]
      - [ 0., 87., 5.28611107e+01, 71., 3.31378860e+01, 36.,
          4.79167014e-01, 6.33333027e-01, 44., 10., 0., 0., 5., 20., 1.,
          0., 0., 0., 0., 0., 0., 0., 0., 0. ]
      - [ 0., 81., 3.42307701e+01, 0., 3.71227760e+01, 26.,
          4.41666991e-01, 6.95833027e-01, 46., 14., 0., 0., 2., 10., 0.,
          0., 0., 0., 0., 0., 0., 0., 0., 0. ]
      - [ 0., 31., 1.05714283e+01, 0., 1.24597311e+01, 14.,
          8.87499988e-01, 5.29166996e-01, 50., 8., 6., 0., 0., 0., 0.,
          0., 0., 0., 0., 0., 0., 0., 0., 0. ]
      - [ 0., 30., 1.34666662e+01, 21., 1.28471355e+01, 15.,
          8.87499988e-01, 5.29166996e-01, 51., 7., 8., 0., 0., 0., 0.,
          0., 0., 0., 0., 0., 0., 0., 0., 0. ]
      - [ 0., 194., 5.70588303e+00, 0., 3.27777977e+01, 34.,
          5.87499976e-01, 7.79166996e-01, 54., 33., 0., 0., 0., 0., 0.,
          0., 0., 0., 0., 0., 1., 0., 0., 0. ]
      - [ 0., 27., 1.46086960e+01, 25., 1.28291082e+01, 23.,
          6.54166996e-01, 5.91666996e-01, 57., 10., 13., 0., 0., 0., 0.,
          0., 0., 0., 0., 0., 0., 0., 0., 0. ]
      - [ 0., 66., 3.92903214e+01, 44., 2.31895332e+01, 31.,
          2.79166996e-01, 5.08333027e-01, 60., 7., 1., 9., 14., 0., 0.,
          0., 0., 0., 0., 0., 0., 0., 0., 0. ]
      - [ 0., 84., 2.42500000e+01, 16., 2.69548225e+01, 16.,
          8.83333027e-01, 5.04167020e-01, 61., 8., 1., 5., 1., 1., 0.,
          0., 0., 0., 0., 0., 0., 0., 0., 0. ]
      - [ 0., 57., 1.90454540e+01, 9., 2.06143761e+01, 22.,
          8.04166973e-01, 3.00000012e-01, 66., 11., 3., 6., 2., 0., 0.,
          0., 0., 0., 0., 0., 0., 0., 0., 0. ]
      - [ 0., 22., 1.49090910e+01, 18., 8.20149136e+00, 22.,
          7.33332992e-01, 5.83333015e-01, 68., 7., 15., 0., 0., 0., 0.,
          0., 0., 0., 0., 0., 0., 0., 0., 0. ]
      - [ 0., 10., 6.45454502e+00, 8., 3.62726092e+00, 22.,
          6.70832992e-01, 6.08332992e-01, 69., 22., 0., 0., 0., 0., 0.,
          0., 0., 0., 0., 0., 0., 0., 0., 0. ]
      - [ 0., 51., 1.51153851e+01, 0., 2.08701611e+01, 26.,
          8.62500012e-01, 4.62500006e-01, 70., 17., 0., 9., 0., 0., 0.,
          0., 0., 0., 0., 0., 0., 0., 0., 0. ]
      - [ 0., 16., 9.68000031e+00, 14., 6.69758177e+00, 25.,
          6.95833027e-01, 5.91666996e-01, 71., 25., 0., 0., 0., 0., 0.,
          0., 0., 0., 0., 0., 0., 0., 0., 0. ]
      - [ 0., 25., 1.48333330e+01, 21., 1.05659304e+01, 24.,
          7.37500012e-01, 5.87499976e-01, 71., 8., 16., 0., 0., 0., 0.,
          0., 0., 0., 0., 0., 0., 0., 0., 0. ]
      - [ 0., 16., 9.60000038e+00, 14., 6.63325024e+00, 25.,
          6.95833027e-01, 5.91666996e-01, 72., 25., 0., 0., 0., 0., 0.,
          0., 0., 0., 0., 0., 0., 0., 0., 0. ]
      - [ 0., 17., 9.82608700e+00, 14., 7.34048986e+00, 23.,
          7.12499976e-01, 5.70833027e-01, 76., 23., 0., 0., 0., 0., 0.,
          0., 0., 0., 0., 0., 0., 0., 0., 0. ]
      - [ 0., 230., 9.81538467e+01, 0., 1.07087921e+02, 13.,
          4.66666996e-01, 2.37499997e-01, 80., 7., 0., 0., 0., 0., 0.,
          0., 0., 0., 1., 0., 0., 2., 3., 0. ]
      - [ 0., 224., 5.91081085e+01, 37., 6.48806763e+01, 37.,
          4.95833009e-01, 2.37499997e-01, 85., 12., 6., 3., 4., 2., 2.,
          2., 0., 1., 0., 3., 0., 1., 1., 0. ]
      - [ 0., 240., 1.60399994e+02, 214., 9.79147949e+01, 15.,
          4.41666991e-01, 2.45832995e-01, 87., 4., 0., 0., 0., 0., 0.,
          0., 0., 0., 0., 1., 1., 4., 4., 1. ]
      - [ 0., 41., 1.35185184e+01, 0., 1.66585979e+01, 27.,
          8.41666996e-01, 5.45832992e-01, 101., 16., 6., 5., 0., 0., 0.,
          0., 0., 0., 0., 0., 0., 0., 0., 0. ]
      - [ 0., 33., 1.65483875e+01, 22., 1.30181971e+01, 31.,
          8.00000012e-01, 5.87499976e-01, 103., 14., 17., 0., 0., 0., 0.,
          0., 0., 0., 0., 0., 0., 0., 0., 0. ]
      - [ 0., 35., 1.82424240e+01, 23., 1.36936846e+01, 33.,
          2.79166996e-01, 6.16666973e-01, 104., 12., 19., 2., 0., 0., 0.,
          0., 0., 0., 0., 0., 0., 0., 0., 0. ]
      - [ 0., 104., 4.55000000e+01, 0., 4.94991570e+01, 24.,
          8.00000012e-01, 4.41666991e-01, 104., 13., 0., 0., 0., 0., 10.,
          1., 0., 0., 0., 0., 0., 0., 0., 0. ]
      - [ 0., 32., 10., 12., 1.01065750e+01, 28., 8.00000012e-01,
          5.91666996e-01, 104., 24., 4., 0., 0., 0., 0., 0., 0., 0., 0.,
          0., 0., 0., 0., 0. ]
      - [ 0., 93., 6.69615402e+01, 86., 3.67554092e+01, 26.,
          5.70833027e-01, 3.54167014e-01, 107., 6., 0., 0., 0., 5., 15.,
          0., 0., 0., 0., 0., 0., 0., 0., 0. ]
      - [ 0., 51., 1.71176472e+01, 0., 2.31970654e+01, 17.,
          2.75000006e-01, 5.83333015e-01, 108., 11., 0., 6., 0., 0., 0.,
          0., 0., 0., 0., 0., 0., 0., 0., 0. ]
      - [ 0., 34., 1.19473686e+01, 0., 1.42514029e+01, 19.,
          6.95833027e-01, 4.83332992e-01, 110., 11., 8., 0., 0., 0., 0.,
          0., 0., 0., 0., 0., 0., 0., 0., 0. ]
      - [ 0., 46., 1.63043480e+01, 0., 1.76768951e+01, 23.,
          7.16666996e-01, 6.66666985e-01, 112., 12., 5., 6., 0., 0., 0.,
          0., 0., 0., 0., 0., 0., 0., 0., 0. ]
      - [ 0., 91., 6.88695679e+01, 85., 3.41388512e+01, 46.,
          6.66666985e-01, 3.58332992e-01, 126., 9., 0., 0., 0., 16., 21.,
          0., 0., 0., 0., 0., 0., 0., 0., 0. ]
      - [ 0., 46., 2.08421059e+01, 26., 1.45448961e+01, 38.,
          3.79166991e-01, 4.87500012e-01, 127., 11., 22., 5., 0., 0., 0.,
          0., 0., 0., 0., 0., 0., 0., 0., 0. ]
      - [ 0., 58., 22., 25., 1.39839191e+01, 40., 5.50000012e-01,
          4.04166996e-01, 132., 10., 25., 4., 1., 0., 0., 0., 0., 0., 0.,
          0., 0., 0., 0., 0. ]
      - [ 0., 57., 1.69393940e+01, 19., 1.45538483e+01, 33.,
          5.91666996e-01, 5.66667020e-01, 132., 15., 15., 1., 2., 0., 0.,
          0., 0., 0., 0., 0., 0., 0., 0., 0. ]
      - [ 0., 117., 8.57307663e+01, 112., 4.71964455e+01, 26.,
          4.79167014e-01, 4.45832998e-01, 133., 6., 0., 0., 0., 0., 2.,
          18., 0., 0., 0., 0., 0., 0., 0., 0. ]
      - [ 0., 45., 1.34444447e+01, 0., 1.69603748e+01, 27.,
          6.45833015e-01, 5.41666985e-01, 133., 17., 5., 5., 0., 0., 0.,
          0., 0., 0., 0., 0., 0., 0., 0., 0. ]
      - [ 0., 45., 2.10588226e+01, 24., 1.48283138e+01, 34.,
          4.62500006e-01, 4.87500012e-01, 135., 10., 18., 6., 0., 0., 0.,
          0., 0., 0., 0., 0., 0., 0., 0., 0. ]
      - [ 0., 132., 5.78636360e+01, 53., 5.81778603e+01, 22.,
          6.33333027e-01, 4.41666991e-01, 6., 11., 0., 0., 0., 0., 0.,
          7., 4., 0., 0., 0., 0., 0., 0., 0. ]
      - [ 0., 144., 1.17695656e+02, 132., 4.57948494e+01, 23.,
          6.95833027e-01, 4.87500012e-01, 21., 3., 0., 0., 0., 0., 0.,
          0., 11., 9., 0., 0., 0., 0., 0., 0. ]
      - [ 0., 51., 1.12941179e+01, 0., 2.03809738e+01, 17.,
          8.04166973e-01, 4.25000012e-01, 32., 13., 0., 4., 0., 0., 0.,
          0., 0., 0., 0., 0., 0., 0., 0., 0. ]
      - [ 0., 53., 5.30000019e+00, 0., 1.58999996e+01, 10.,
          8.41666996e-01, 4.66666996e-01, 47., 9., 0., 0., 1., 0., 0.,
          0., 0., 0., 0., 0., 0., 0., 0., 0. ]
      - [ 0., 156., 2.94545460e+01, 34., 3.34945412e+01, 22.,
          5.04167020e-01, 7.58333027e-01, 48., 8., 3., 10., 0., 0., 0.,
          0., 0., 0., 1., 0., 0., 0., 0., 0. ]
      - [ 0., 114., 1.00559998e+02, 109., 2.98128567e+01, 25.,
          5.08333027e-01, 2.75000006e-01, 63., 2., 0., 0., 0., 0., 0.,
          23., 0., 0., 0., 0., 0., 0., 0., 0. ]
      - [ 0., 17., 9.95833302e+00, 14., 7.13838911e+00, 24.,
          7.12499976e-01, 6.04166985e-01, 63., 24., 0., 0., 0., 0., 0.,
          0., 0., 0., 0., 0., 0., 0., 0., 0. ]
      - [ 0., 18., 1.21904764e+01, 15., 6.04443121e+00, 21.,
          7.12499976e-01, 5.70833027e-01, 69., 20., 1., 0., 0., 0., 0.,
          0., 0., 0., 0., 0., 0., 0., 0., 0. ]
      - [ 0., 19., 8.95652199e+00, 14., 7.93713522e+00, 23.,
          7.16666996e-01, 5.70833027e-01, 70., 22., 1., 0., 0., 0., 0.,
          0., 0., 0., 0., 0., 0., 0., 0., 0. ]
      - [ 0., 17., 1.25000000e+01, 14., 4.82979488e+00, 26.,
          7.33332992e-01, 5.87499976e-01, 70., 26., 0., 0., 0., 0., 0.,
          0., 0., 0., 0., 0., 0., 0., 0., 0. ]
      - [ 0., 16., 9.35000038e+00, 12., 6.24720001e+00, 20.,
          7.16666996e-01, 5.95833004e-01, 72., 20., 0., 0., 0., 0., 0.,
          0., 0., 0., 0., 0., 0., 0., 0., 0. ]
      - [ 0., 17., 1.10454550e+01, 13., 6.27750206e+00, 22.,
          7.33332992e-01, 5.87499976e-01, 72., 22., 0., 0., 0., 0., 0.,
          0., 0., 0., 0., 0., 0., 0., 0., 0. ]
      - [ 0., 17., 1.02799997e+01, 15., 7.13593721e+00, 25.,
          6.54166996e-01, 5.91666996e-01, 73., 25., 0., 0., 0., 0., 0.,
          0., 0., 0., 0., 0., 0., 0., 0., 0. ]
      - [ 0., 15., 1.04399996e+01, 13., 5.95368814e+00, 25.,
          7.16666996e-01, 5.95833004e-01, 73., 25., 0., 0., 0., 0., 0.,
          0., 0., 0., 0., 0., 0., 0., 0., 0. ]
      - [ 0., 18., 1.06666670e+01, 15., 7.10811186e+00, 33.,
          6.54166996e-01, 5.91666996e-01, 75., 32., 1., 0., 0., 0., 0.,
          0., 0., 0., 0., 0., 0., 0., 0., 0. ]
      - [ 0., 16., 1.08695650e+01, 15., 6.56276894e+00, 23.,
          6.12500012e-01, 5.20833015e-01, 76., 23., 0., 0., 0., 0., 0.,
          0., 0., 0., 0., 0., 0., 0., 0., 0. ]
      - [ 0., 16., 1.05384617e+01, 14., 6.45833302e+00, 26.,
          6.12500012e-01, 5.66667020e-01, 80., 26., 0., 0., 0., 0., 0.,
          0., 0., 0., 0., 0., 0., 0., 0., 0. ]
      - [ 0., 17., 1.03599997e+01, 15., 7.25468111e+00, 25.,
          6.33333027e-01, 5.70833027e-01, 81., 25., 0., 0., 0., 0., 0.,
          0., 0., 0., 0., 0., 0., 0., 0., 0. ]
      - [ 0., 243., 1.39578949e+02, 215., 1.07156708e+02, 19.,
          4.45832998e-01, 2.41667002e-01, 85., 7., 0., 0., 0., 0., 0.,
          0., 0., 0., 0., 0., 1., 7., 1., 3. ]
      - [ 0., 249., 6.97777786e+01, 96., 7.09393768e+01, 18.,
          5.12499988e-01, 2.29166999e-01, 85., 8., 0., 0., 0., 0., 4.,
          2., 2., 0., 1., 0., 0., 0., 0., 1. ]
      - [ 0., 17., 1.23103447e+01, 14., 5.86693478e+00, 29.,
          4.04166996e-01, 5.66667020e-01, 87., 29., 0., 0., 0., 0., 0.,
          0., 0., 0., 0., 0., 0., 0., 0., 0. ]
      - [ 0., 15., 9.60000038e+00, 14., 6.62721682e+00, 25.,
          5.70833027e-01, 4.45832998e-01, 88., 25., 0., 0., 0., 0., 0.,
          0., 0., 0., 0., 0., 0., 0., 0., 0. ]
      - [ 0., 241., 9.09375000e+01, 0., 1.03948586e+02, 16.,
          4.54167008e-01, 2.41667002e-01, 91., 9., 0., 0., 0., 0., 0.,
          0., 0., 0., 0., 1., 3., 1., 1., 1. ]
      - [ 0., 235., 8.85000000e+01, 0., 1.01653206e+02, 16.,
          4.54167008e-01, 2.41667002e-01, 92., 9., 0., 0., 0., 0., 0.,
          0., 0., 0., 1., 1., 1., 3., 1., 0. ]
      - [ 0., 48., 6., 0., 1.58745079e+01, 16., 2.50000000e-01,
          3.54167014e-01, 96., 14., 0., 2., 0., 0., 0., 0., 0., 0., 0.,
          0., 0., 0., 0., 0. ]
      - [ 0., 45., 1.73125000e+01, 24., 1.39853439e+01, 32.,
          2.75000006e-01, 3.75000000e-01, 108., 12., 19., 1., 0., 0., 0.,
          0., 0., 0., 0., 0., 0., 0., 0., 0. ]
      - [ 0., 108., 3.83461533e+01, 23., 4.11899376e+01, 26.,
          6.54166996e-01, 5.45832992e-01, 127., 13., 0., 1., 5., 2., 2.,
          3., 0., 0., 0., 0., 0., 0., 0., 0. ]
      - [ 0., 66., 8.37036991e+00, 0., 2.03545399e+01, 27.,
          5.45832992e-01, 4.04166996e-01, 135., 23., 0., 2., 2., 0., 0.,
          0., 0., 0., 0., 0., 0., 0., 0., 0. ]
      - [ 0., 59., 3.14166660e+01, 50., 2.66441307e+01, 12.,
          7.12499976e-01, 5.50000012e-01, 5., 5., 0., 2., 5., 0., 0., 0.,
          0., 0., 0., 0., 0., 0., 0., 0. ]
      - [ 0., 83., 1.26153851e+01, 0., 2.95882988e+01, 13.,
          6.95833027e-01, 4.70833004e-01, 8., 11., 0., 0., 0., 2., 0.,
          0., 0., 0., 0., 0., 0., 0., 0., 0. ]
      - [ 0., 157., 1.32399994e+02, 147., 4.10609322e+01, 25.,
          6.75000012e-01, 4.58332986e-01, 15., 2., 0., 0., 0., 0., 0.,
          2., 2., 13., 6., 0., 0., 0., 0., 0. ]
      - [ 0., 100., 3.85454559e+01, 0., 4.64168129e+01, 22.,
          4.66666996e-01, 6.49999976e-01, 34., 13., 0., 0., 0., 1., 8.,
          0., 0., 0., 0., 0., 0., 0., 0., 0. ]
      - [ 0., 61., 2.59375000e+01, 34., 1.98776531e+01, 32.,
          4.79167014e-01, 6.54166996e-01, 46., 11., 5., 13., 3., 0., 0.,
          0., 0., 0., 0., 0., 0., 0., 0., 0. ]
      - [ 0., 68., 2.13939400e+01, 25., 1.87130470e+01, 33.,
          4.79167014e-01, 6.54166996e-01, 47., 12., 15., 3., 3., 0., 0.,
          0., 0., 0., 0., 0., 0., 0., 0., 0. ]
      - [ 0., 61., 2.00303040e+01, 23., 1.76024876e+01, 33.,
          4.79167014e-01, 6.54166996e-01, 48., 12., 16., 3., 2., 0., 0.,
          0., 0., 0., 0., 0., 0., 0., 0., 0. ]
      - [ 0., 35., 1.41538458e+01, 0., 1.55209341e+01, 13.,
          8.87499988e-01, 5.29166996e-01, 52., 7., 4., 2., 0., 0., 0.,
          0., 0., 0., 0., 0., 0., 0., 0., 0. ]
      - [ 0., 139., 66., 60., 6.61333160e+01, 26., 8.79167020e-01,
          5.20833015e-01, 53., 13., 0., 0., 0., 0., 0., 0., 9., 4., 0.,
          0., 0., 0., 0., 0. ]
      - [ 0., 157., 9.92142868e+01, 129., 6.35375900e+01, 14.,
          4.49999988e-01, 6.58333004e-01, 54., 4., 0., 0., 0., 0., 0.,
          0., 5., 3., 2., 0., 0., 0., 0., 0. ]
      - [ 0., 132., 6.12400017e+01, 0., 6.37597237e+01, 25.,
          8.79167020e-01, 5.20833015e-01, 59., 13., 0., 0., 0., 0., 0.,
          0., 12., 0., 0., 0., 0., 0., 0., 0. ]
      - [ 0., 79., 1.92800007e+01, 19., 2.17375622e+01, 25.,
          8.79167020e-01, 5.79167008e-01, 59., 12., 8., 3., 1., 1., 0.,
          0., 0., 0., 0., 0., 0., 0., 0., 0. ]
      - [ 0., 30., 1.37142859e+01, 0., 1.44028530e+01, 21.,
          6.75000012e-01, 5.91666996e-01, 62., 11., 10., 0., 0., 0., 0.,
          0., 0., 0., 0., 0., 0., 0., 0., 0. ]
      - [ 0., 30., 2.01176472e+01, 26., 1.12870693e+01, 34.,
          7.16666996e-01, 5.87499976e-01, 62., 8., 26., 0., 0., 0., 0.,
          0., 0., 0., 0., 0., 0., 0., 0., 0. ]
      - [ 0., 51., 7.14285707e+00, 0., 1.75004368e+01, 14.,
          8.87499988e-01, 5.04167020e-01, 65., 12., 0., 2., 0., 0., 0.,
          0., 0., 0., 0., 0., 0., 0., 0., 0. ]
      - [ 0., 24., 1.36666670e+01, 21., 1.07806416e+01, 21.,
          6.70832992e-01, 5.87499976e-01, 66., 8., 13., 0., 0., 0., 0.,
          0., 0., 0., 0., 0., 0., 0., 0., 0. ]
      - [ 0., 115., 4.11481476e+01, 30., 3.39124184e+01, 27.,
          8.83333027e-01, 5.87499976e-01, 66., 7., 7., 3., 2., 6., 0.,
          2., 0., 0., 0., 0., 0., 0., 0., 0. ]
      - [ 0., 30., 1.82173920e+01, 27., 1.33675680e+01, 23.,
          7.37500012e-01, 5.87499976e-01, 68., 8., 15., 0., 0., 0., 0.,
          0., 0., 0., 0., 0., 0., 0., 0., 0. ]
      - [ 0., 99., 7.81904755e+01, 83., 2.59644794e+01, 21.,
          4.83332992e-01, 2.95832992e-01, 70., 2., 0., 0., 0., 12., 7.,
          0., 0., 0., 0., 0., 0., 0., 0., 0. ]
      - [ 0., 28., 1.33333330e+01, 22., 1.23243208e+01, 24.,
          7.16666996e-01, 5.83333015e-01, 71., 11., 13., 0., 0., 0., 0.,
          0., 0., 0., 0., 0., 0., 0., 0., 0. ]
      - [ 0., 17., 9.88888931e+00, 15., 7.06233311e+00, 27.,
          6.70832992e-01, 5.66667020e-01, 77., 27., 0., 0., 0., 0., 0.,
          0., 0., 0., 0., 0., 0., 0., 0., 0. ]
      - [ 0., 27., 1.53043480e+01, 24., 1.23056536e+01, 23.,
          6.54166996e-01, 5.50000012e-01, 79., 9., 14., 0., 0., 0., 0.,
          0., 0., 0., 0., 0., 0., 0., 0., 0. ]
      - [ 0., 185., 3.35666656e+01, 27., 3.90970459e+01, 30.,
          4.37500000e-01, 2.58332998e-01, 81., 11., 7., 6., 3., 1., 0.,
          1., 0., 0., 0., 1., 0., 0., 0., 0. ]
      - [ 0., 26., 1.30434780e+01, 21., 1.15136147e+01, 23.,
          6.95833027e-01, 5.50000012e-01, 81., 10., 13., 0., 0., 0., 0.,
          0., 0., 0., 0., 0., 0., 0., 0., 0. ]
      - [ 0., 215., 4.38125000e+01, 33., 5.24800186e+01, 32.,
          4.37500000e-01, 2.54166991e-01, 82., 11., 6., 7., 3., 1., 0.,
          1., 1., 0., 0., 0., 1., 1., 0., 0. ]
      - [ 0., 251., 1.39263153e+02, 202., 1.07401772e+02, 19.,
          4.45832998e-01, 2.41667002e-01, 85., 7., 0., 0., 0., 0., 0.,
          0., 0., 0., 0., 0., 3., 2., 4., 3. ]
      - [ 0., 28., 1.93793106e+01, 26., 1.10404081e+01, 29.,
          6.33333027e-01, 5.54166973e-01, 86., 7., 22., 0., 0., 0., 0.,
          0., 0., 0., 0., 0., 0., 0., 0., 0. ]
      - [ 0., 45., 2.02307701e+01, 18., 2.03059444e+01, 26.,
          4.87500012e-01, 4.58332986e-01, 89., 13., 0., 13., 0., 0., 0.,
          0., 0., 0., 0., 0., 0., 0., 0., 0. ]
      - [ 0., 95., 4.37777786e+01, 0., 4.54755402e+01, 27.,
          7.37500012e-01, 4.20832992e-01, 89., 14., 0., 0., 0., 0., 13.,
          0., 0., 0., 0., 0., 0., 0., 0., 0. ]
      - [ 0., 59., 1.11999998e+01, 0., 2.24410343e+01, 25.,
          8.79167020e-01, 5.04167020e-01, 89., 20., 0., 1., 4., 0., 0.,
          0., 0., 0., 0., 0., 0., 0., 0., 0. ]
      - [ 0., 53., 2.21200008e+01, 0., 2.50077114e+01, 25.,
          5.87499976e-01, 5.00000000e-01, 90., 14., 0., 7., 4., 0., 0.,
          0., 0., 0., 0., 0., 0., 0., 0., 0. ]
      - [ 0., 129., 5.60869598e+00, 0., 2.63071136e+01, 23.,
          5.50000012e-01, 7.20833004e-01, 112., 22., 0., 0., 0., 0., 0.,
          0., 1., 0., 0., 0., 0., 0., 0., 0. ]
      - [ 0., 116., 8.80227280e+01, 108., 4.20186577e+01, 44.,
          6.08332992e-01, 4.37500000e-01, 134., 8., 0., 0., 0., 1., 6.,
          29., 0., 0., 0., 0., 0., 0., 0., 0. ]
      - [ 0., 86., 8.44999981e+00, 0., 2.53544369e+01, 20.,
          6.99999988e-01, 6.37499988e-01, 5., 18., 0., 0., 0., 1., 1.,
          0., 0., 0., 0., 0., 0., 0., 0., 0. ]
      - [ 0., 139., 6.78750000e+01, 64., 6.79069901e+01, 24.,
          7.12499976e-01, 5.41666985e-01, 16., 12., 0., 0., 0., 0., 0.,
          0., 6., 6., 0., 0., 0., 0., 0., 0. ]
      - [ 0., 132., 7.88260880e+01, 128., 6.32123070e+01, 23.,
          6.95833027e-01, 3.83332998e-01, 22., 9., 0., 0., 0., 0., 0.,
          0., 14., 0., 0., 0., 0., 0., 0., 0. ]
      - [ 0., 94., 5.41111107e+01, 82., 4.16380653e+01, 27.,
          4.49999988e-01, 6.49999976e-01, 35., 10., 0., 0., 0., 8., 9.,
          0., 0., 0., 0., 0., 0., 0., 0., 0. ]
      - [ 0., 82., 3.43888893e+01, 48., 2.85834827e+01, 36.,
          4.83332992e-01, 6.54166996e-01, 48., 14., 0., 8., 11., 3., 0.,
          0., 0., 0., 0., 0., 0., 0., 0., 0. ]
      - [ 0., 79., 3.08571434e+01, 40., 2.50749073e+01, 35.,
          4.83332992e-01, 6.54166996e-01, 49., 13., 0., 14., 7., 1., 0.,
          0., 0., 0., 0., 0., 0., 0., 0., 0. ]
      - [ 0., 43., 1.15333338e+01, 12., 1.29247398e+01, 15.,
          8.50000024e-01, 6.41667008e-01, 56., 11., 3., 1., 0., 0., 0.,
          0., 0., 0., 0., 0., 0., 0., 0., 0. ]
      - [ 0., 152., 1.06538460e+02, 137., 5.89107742e+01, 26.,
          4.58332986e-01, 6.33333027e-01, 58., 6., 0., 0., 0., 0., 0.,
          0., 7., 13., 0., 0., 0., 0., 0., 0. ]
      - [ 0., 39., 1.33125000e+01, 0., 1.73231010e+01, 16.,
          8.87499988e-01, 5.33333004e-01, 58., 10., 2., 4., 0., 0., 0.,
          0., 0., 0., 0., 0., 0., 0., 0., 0. ]
      - [ 0., 39., 1.67999992e+01, 0., 1.80525150e+01, 15.,
          8.87499988e-01, 5.37500024e-01, 59., 8., 2., 5., 0., 0., 0.,
          0., 0., 0., 0., 0., 0., 0., 0., 0. ]
      - [ 0., 49., 1.76521740e+01, 0., 2.06284065e+01, 23.,
          8.58332992e-01, 4.62500006e-01, 65., 13., 2., 8., 0., 0., 0.,
          0., 0., 0., 0., 0., 0., 0., 0., 0. ]
      - [ 0., 34., 7., 0., 8.89027786e+00, 27., 5.04167020e-01,
          7.54167020e-01, 67., 23., 4., 0., 0., 0., 0., 0., 0., 0., 0.,
          0., 0., 0., 0., 0. ]
      - [ 0., 34., 1.45000000e+01, 24., 1.34474287e+01, 24.,
          6.54166996e-01, 5.41666985e-01, 69., 11., 13., 0., 0., 0., 0.,
          0., 0., 0., 0., 0., 0., 0., 0., 0. ]
      - [ 0., 20., 1.10400000e+01, 16., 7.73811293e+00, 25.,
          6.75000012e-01, 5.91666996e-01, 69., 23., 2., 0., 0., 0., 0.,
          0., 0., 0., 0., 0., 0., 0., 0., 0. ]
      - [ 0., 255., 1.58187500e+02, 218., 1.07899963e+02, 16.,
          4.49999988e-01, 2.41667002e-01, 85., 5., 0., 0., 0., 0., 0.,
          0., 0., 0., 0., 1., 0., 3., 2., 5. ]
      - [ 0., 36., 1.72222214e+01, 29., 1.54712000e+01, 27.,
          6.29167020e-01, 5.24999976e-01, 86., 12., 14., 1., 0., 0., 0.,
          0., 0., 0., 0., 0., 0., 0., 0., 0. ]
      - [ 0., 25., 1.49629631e+01, 23., 1.15067825e+01, 27.,
          6.75000012e-01, 5.45832992e-01, 86., 10., 17., 0., 0., 0., 0.,
          0., 0., 0., 0., 0., 0., 0., 0., 0. ]
      - [ 0., 43., 2.05333328e+01, 35., 1.92937527e+01, 30.,
          5.29166996e-01, 5.08333027e-01, 87., 14., 0., 16., 0., 0., 0.,
          0., 0., 0., 0., 0., 0., 0., 0., 0. ]
      - [ 0., 199., 7.13461533e+01, 62., 6.03648796e+01, 26.,
          4.25000012e-01, 2.58332998e-01, 93., 7., 0., 3., 4., 3., 1.,
          2., 2., 1., 0., 2., 1., 0., 0., 0. ]
      - [ 0., 135., 6.61851883e+01, 123., 6.38197899e+01, 27.,
          6.29167020e-01, 6.04166985e-01, 95., 13., 0., 0., 0., 0., 0.,
          0., 14., 0., 0., 0., 0., 0., 0., 0. ]
      - [ 0., 51., 1.43636360e+01, 0., 2.11972237e+01, 22.,
          8.37499976e-01, 5.50000012e-01, 102., 15., 0., 7., 0., 0., 0.,
          0., 0., 0., 0., 0., 0., 0., 0., 0. ]
      - [ 0., 154., 5.60322571e+01, 0., 6.02882767e+01, 31.,
          5.24999976e-01, 2.54166991e-01, 110., 16., 0., 0., 1., 0., 4.,
          5., 0., 4., 1., 0., 0., 0., 0., 0. ]
      - [ 0., 95., 6.30400009e+01, 91., 4.32716827e+01, 25.,
          6.12500012e-01, 3.41666996e-01, 112., 8., 0., 0., 0., 0., 17.,
          0., 0., 0., 0., 0., 0., 0., 0., 0. ]
      - [ 0., 72., 2.73142853e+01, 38., 2.48397961e+01, 35.,
          6.49999976e-01, 5.45832992e-01, 131., 15., 0., 14., 4., 2., 0.,
          0., 0., 0., 0., 0., 0., 0., 0., 0. ]
      - [ 0., 51., 8.22222233e+00, 0., 1.83924980e+01, 18.,
          5.08333027e-01, 4.83332992e-01, 135., 15., 0., 3., 0., 0., 0.,
          0., 0., 0., 0., 0., 0., 0., 0., 0. ]
      - [ 0., 84., 1.11851854e+01, 0., 2.69828987e+01, 27.,
          5.45832992e-01, 4.04166996e-01, 135., 23., 0., 0., 1., 3., 0.,
          0., 0., 0., 0., 0., 0., 0., 0., 0. ]
      - [ 0., 135., 6.47916641e+01, 62., 6.48260345e+01, 24.,
          6.49999976e-01, 4.62500006e-01, 12., 12., 0., 0., 0., 0., 0.,
          0., 12., 0., 0., 0., 0., 0., 0., 0. ]
      - [ 0., 90., 4.69444427e+01, 79., 4.20944328e+01, 18.,
          7.33332992e-01, 3.83332998e-01, 13., 8., 0., 0., 0., 6., 4.,
          0., 0., 0., 0., 0., 0., 0., 0., 0. ]
      - [ 0., 49., 2.13500004e+01, 18., 2.15482597e+01, 20.,
          7.91666985e-01, 5.54166973e-01, 23., 10., 0., 10., 0., 0., 0.,
          0., 0., 0., 0., 0., 0., 0., 0., 0. ]
      - [ 0., 64., 8.61111069e+00, 0., 1.51038589e+01, 18.,
          6.54166996e-01, 7.58333027e-01, 50., 16., 1., 0., 1., 0., 0.,
          0., 0., 0., 0., 0., 0., 0., 0., 0. ]
      - [ 0., 37., 1.13999996e+01, 0., 1.61814709e+01, 15.,
          8.45833004e-01, 6.45833015e-01, 50., 10., 3., 2., 0., 0., 0.,
          0., 0., 0., 0., 0., 0., 0., 0., 0. ]
      - [ 0., 26., 7.14285707e+00, 0., 9.62405586e+00, 28.,
          6.08332992e-01, 2.12500006e-01, 57., 20., 8., 0., 0., 0., 0.,
          0., 0., 0., 0., 0., 0., 0., 0., 0. ]
      - [ 0., 25., 1.45000000e+01, 21., 1.08282042e+01, 20.,
          7.74999976e-01, 5.66667020e-01, 58., 8., 12., 0., 0., 0., 0.,
          0., 0., 0., 0., 0., 0., 0., 0., 0. ]
      - [ 0., 34., 1.66521740e+01, 28., 1.46839418e+01, 23.,
          6.54166996e-01, 6.08332992e-01, 63., 10., 13., 0., 0., 0., 0.,
          0., 0., 0., 0., 0., 0., 0., 0., 0. ]
      - [ 0., 44., 2.31904755e+01, 38., 2.01650791e+01, 21.,
          6.79166973e-01, 3.83332998e-01, 64., 9., 0., 12., 0., 0., 0.,
          0., 0., 0., 0., 0., 0., 0., 0., 0. ]
      - [ 0., 51., 1.68823528e+01, 0., 2.08718281e+01, 17.,
          8.08332980e-01, 3.04167002e-01, 64., 10., 2., 5., 0., 0., 0.,
          0., 0., 0., 0., 0., 0., 0., 0., 0. ]
      - [ 0., 227., 8.96842117e+01, 131., 8.74504700e+01, 19.,
          2.87499994e-01, 3.16666991e-01, 67., 9., 0., 0., 0., 0., 0.,
          0., 1., 2., 3., 1., 2., 0., 1., 0. ]
      - [ 0., 255., 7.51111145e+01, 0., 1.07184624e+02, 18.,
          2.95832992e-01, 6.70832992e-01, 67., 12., 0., 0., 0., 0., 0.,
          0., 0., 0., 0., 1., 0., 1., 2., 2. ]
      - [ 0., 30., 1.44444447e+01, 24., 1.29767122e+01, 27.,
          6.49999976e-01, 3.66667002e-01, 69., 12., 15., 0., 0., 0., 0.,
          0., 0., 0., 0., 0., 0., 0., 0., 0. ]
      - [ 0., 32., 1.91666660e+01, 30., 1.48735409e+01, 24.,
          6.70832992e-01, 3.83332998e-01, 69., 9., 15., 0., 0., 0., 0.,
          0., 0., 0., 0., 0., 0., 0., 0., 0. ]
      - [ 0., 90., 3.94399986e+01, 43., 3.47494812e+01, 25.,
          8.70832980e-01, 4.00000006e-01, 69., 10., 0., 4., 3., 6., 2.,
          0., 0., 0., 0., 0., 0., 0., 0., 0. ]
      - [ 0., 32., 2.19687500e+01, 30., 1.37851467e+01, 32.,
          6.70832992e-01, 5.66667020e-01, 70., 9., 23., 0., 0., 0., 0.,
          0., 0., 0., 0., 0., 0., 0., 0., 0. ]
      - [ 0., 32., 2.06800003e+01, 29., 1.42343807e+01, 25.,
          6.54166996e-01, 4.25000012e-01, 74., 8., 17., 0., 0., 0., 0.,
          0., 0., 0., 0., 0., 0., 0., 0., 0. ]
      - [ 0., 104., 4.82692299e+01, 41., 4.84224663e+01, 26.,
          8.00000012e-01, 3.58332992e-01, 75., 13., 0., 0., 0., 1., 11.,
          1., 0., 0., 0., 0., 0., 0., 0., 0. ]
      - [ 0., 24., 2.03333306e+00, 0., 6.15620804e+00, 30.,
          1.95832998e-01, 4.87500012e-01, 76., 27., 3., 0., 0., 0., 0.,
          0., 0., 0., 0., 0., 0., 0., 0., 0. ]
      - [ 0., 31., 1.46666670e+01, 25., 1.35544167e+01, 24.,
          6.54166996e-01, 5.29166996e-01, 77., 11., 13., 0., 0., 0., 0.,
          0., 0., 0., 0., 0., 0., 0., 0., 0. ]
      - [ 0., 68., 7., 0., 1.35050764e+01, 31., 5.29166996e-01,
          7.70833015e-01, 81., 28., 2., 0., 1., 0., 0., 0., 0., 0., 0.,
          0., 0., 0., 0., 0. ]
      - [ 0., 33., 1.74193554e+01, 26., 1.39324970e+01, 31.,
          4.45832998e-01, 5.24999976e-01, 84., 12., 19., 0., 0., 0., 0.,
          0., 0., 0., 0., 0., 0., 0., 0., 0. ]
      - [ 0., 34., 1.83793106e+01, 30., 1.54861755e+01, 29.,
          6.29167020e-01, 5.50000012e-01, 84., 12., 17., 0., 0., 0., 0.,
          0., 0., 0., 0., 0., 0., 0., 0., 0. ]
      - [ 0., 46., 1.00500002e+01, 0., 1.78842812e+01, 20.,
          3.37500006e-01, 2.75000006e-01, 89., 15., 1., 4., 0., 0., 0.,
          0., 0., 0., 0., 0., 0., 0., 0., 0. ]
      - [ 0., 182., 2.55000000e+01, 0., 4.33295517e+01, 20.,
          4.79167014e-01, 2.50000000e-01, 95., 12., 3., 1., 2., 1., 0.,
          0., 0., 0., 0., 1., 0., 0., 0., 0. ]
      - [ 0., 34., 1.22307692e+01, 8., 1.15967760e+01, 26.,
          8.41666996e-01, 5.45832992e-01, 99., 18., 8., 0., 0., 0., 0.,
          0., 0., 0., 0., 0., 0., 0., 0., 0. ]
      - [ 0., 34., 2.15000000e+01, 30., 1.41650982e+01, 20.,
          2.54166991e-01, 3.83332998e-01, 102., 6., 14., 0., 0., 0., 0.,
          0., 0., 0., 0., 0., 0., 0., 0., 0. ]
      - [ 0., 34., 7.37500000e+00, 7., 8.44004631e+00, 24.,
          8.00000012e-01, 5.87499976e-01, 105., 22., 2., 0., 0., 0., 0.,
          0., 0., 0., 0., 0., 0., 0., 0., 0. ]
      - [ 0., 50., 1.26666670e+01, 14., 1.22642851e+01, 21.,
          3.00000012e-01, 6.16666973e-01, 106., 16., 4., 1., 0., 0., 0.,
          0., 0., 0., 0., 0., 0., 0., 0., 0. ]
      - [ 0., 41., 1.70769234e+01, 19., 1.18589678e+01, 39.,
          2.54166991e-01, 5.04167020e-01, 107., 17., 19., 3., 0., 0., 0.,
          0., 0., 0., 0., 0., 0., 0., 0., 0. ]
      - [ 0., 34., 1.70000005e+00, 0., 7.41012812e+00, 20.,
          2.91667014e-01, 3.37500006e-01, 109., 19., 1., 0., 0., 0., 0.,
          0., 0., 0., 0., 0., 0., 0., 0., 0. ]
      - [ 0., 141., 1.12571426e+02, 133., 4.65633926e+01, 21.,
          5.66667020e-01, 2.54166991e-01, 110., 3., 0., 0., 0., 0., 0.,
          2., 9., 7., 0., 0., 0., 0., 0., 0. ]
      - [ 0., 45., 1.35714283e+01, 0., 1.51329708e+01, 21.,
          7.91666985e-01, 4.20832992e-01, 112., 11., 9., 1., 0., 0., 0.,
          0., 0., 0., 0., 0., 0., 0., 0., 0. ]
      - [ 0., 80., 2.17142849e+01, 0., 2.46984539e+01, 21.,
          7.83333004e-01, 5.50000012e-01, 116., 11., 1., 7., 1., 1., 0.,
          0., 0., 0., 0., 0., 0., 0., 0., 0. ]
      - [ 0., 59., 2.30666676e+01, 22., 1.60172138e+01, 45.,
          4.66666996e-01, 6.08332992e-01, 125., 11., 27., 4., 3., 0., 0.,
          0., 0., 0., 0., 0., 0., 0., 0., 0. ]
      - [ 0., 47., 2.18571434e+01, 25., 1.70664959e+01, 28.,
          4.20832992e-01, 4.91667002e-01, 127., 10., 10., 8., 0., 0., 0.,
          0., 0., 0., 0., 0., 0., 0., 0., 0. ]
      - [ 0., 15., 8.92000008e+00, 11., 5.67041397e+00, 25.,
          4.25000012e-01, 4.79167014e-01, 130., 25., 0., 0., 0., 0., 0.,
          0., 0., 0., 0., 0., 0., 0., 0., 0. ]
      - [ 0., 28., 9.82608700e+00, 14., 8.41660976e+00, 23.,
          4.08333004e-01, 4.70833004e-01, 131., 20., 3., 0., 0., 0., 0.,
          0., 0., 0., 0., 0., 0., 0., 0., 0. ]
      - [ 0., 17., 9.80000019e+00, 14., 6.88185978e+00, 25.,
          4.25000012e-01, 4.79167014e-01, 131., 25., 0., 0., 0., 0., 0.,
          0., 0., 0., 0., 0., 0., 0., 0., 0. ]
      - [ 0., 34., 1.72105255e+01, 26., 1.32965326e+01, 19.,
          4.37500000e-01, 4.62500006e-01, 133., 7., 12., 0., 0., 0., 0.,
          0., 0., 0., 0., 0., 0., 0., 0., 0. ]
      - [ 0., 65., 4.92058830e+01, 54., 1.85801601e+01, 34.,
          5.29166996e-01, 5.70833027e-01, 135., 4., 0., 9., 21., 0., 0.,
          0., 0., 0., 0., 0., 0., 0., 0., 0. ]
      - [ 0., 113., 5.75217400e+01, 105., 5.51029625e+01, 23.,
          6.75000012e-01, 4.04166996e-01, 9., 11., 0., 0., 0., 0., 0.,
          12., 0., 0., 0., 0., 0., 0., 0., 0. ]
      - [ 0., 124., 6.42307663e+01, 114., 5.95026245e+01, 26.,
          7.41666973e-01, 4.20832992e-01, 21., 12., 0., 0., 0., 0., 0.,
          6., 8., 0., 0., 0., 0., 0., 0., 0. ]
      - [ 0., 119., 3.45238113e+01, 0., 4.18758011e+01, 21.,
          4.00000006e-01, 6.49999976e-01, 38., 11., 0., 3., 3., 1., 1.,
          2., 0., 0., 0., 0., 0., 0., 0., 0. ]
      - [ 0., 79., 5.38571434e+01, 66., 2.84551201e+01, 28.,
          3.95832986e-01, 6.54166996e-01, 43., 6., 0., 0., 13., 9., 0.,
          0., 0., 0., 0., 0., 0., 0., 0., 0. ]
      - [ 0., 152., 7.04545441e+01, 96., 4.97637405e+01, 22.,
          3.58332992e-01, 6.41667008e-01, 48., 7., 0., 0., 0., 1., 10.,
          2., 1., 1., 0., 0., 0., 0., 0., 0. ]
      - [ 0., 133., 8.04250031e+01, 90., 3.61779556e+01, 40.,
          3.62500012e-01, 6.49999976e-01, 49., 6., 0., 0., 0., 8., 21.,
          1., 4., 0., 0., 0., 0., 0., 0., 0. ]
      - [ 0., 92., 4.58947372e+01, 56., 3.16317539e+01, 38.,
          3.75000000e-01, 6.70832992e-01, 49., 11., 1., 5., 10., 8., 3.,
          0., 0., 0., 0., 0., 0., 0., 0., 0. ]
      - [ 0., 92., 4.38695641e+01, 72., 3.87627182e+01, 23.,
          4.91667002e-01, 6.75000012e-01, 49., 10., 0., 0., 0., 11., 2.,
          0., 0., 0., 0., 0., 0., 0., 0., 0. ]
      - [ 0., 24., 1.17058821e+01, 18., 1.00221205e+01, 17.,
          6.25000000e-01, 7.58333027e-01, 49., 8., 9., 0., 0., 0., 0.,
          0., 0., 0., 0., 0., 0., 0., 0., 0. ]
      - [ 0., 97., 4.58499985e+01, 55., 3.43245888e+01, 40.,
          3.75000000e-01, 6.70832992e-01, 51., 13., 0., 5., 8., 11., 3.,
          0., 0., 0., 0., 0., 0., 0., 0., 0. ]
      - [ 0., 40., 1.37777777e+01, 0., 1.73863144e+01, 18.,
          8.87499988e-01, 5.24999976e-01, 57., 11., 3., 4., 0., 0., 0.,
          0., 0., 0., 0., 0., 0., 0., 0., 0. ]
      - [ 0., 181., 7.24545441e+01, 0., 8.04129868e+01, 11.,
          5.45832992e-01, 7.33332992e-01, 60., 6., 0., 0., 0., 0., 0.,
          0., 1., 1., 1., 2., 0., 0., 0., 0. ]
      - [ 0., 102., 2.80952377e+01, 29., 2.78976097e+01, 21.,
          8.75000000e-01, 4.25000012e-01, 62., 8., 4., 6., 1., 1., 1.,
          0., 0., 0., 0., 0., 0., 0., 0., 0. ]
      - [ 0., 40., 1.95599995e+01, 33., 1.88681316e+01, 25.,
          6.54166996e-01, 5.50000012e-01, 63., 12., 2., 11., 0., 0., 0.,
          0., 0., 0., 0., 0., 0., 0., 0., 0. ]
      - [ 0., 20., 1.24761906e+01, 18., 8.87811184e+00, 21.,
          6.87500000e-01, 5.87499976e-01, 65., 10., 11., 0., 0., 0., 0.,
          0., 0., 0., 0., 0., 0., 0., 0., 0. ]
      - [ 0., 49., 1.33684206e+01, 10., 1.63970814e+01, 19.,
          8.45833004e-01, 6.45833015e-01, 65., 13., 3., 3., 0., 0., 0.,
          0., 0., 0., 0., 0., 0., 0., 0., 0. ]
      - [ 0., 18., 9.53846169e+00, 16., 8.19113255e+00, 26.,
          6.75000012e-01, 5.70833027e-01, 67., 24., 2., 0., 0., 0., 0.,
          0., 0., 0., 0., 0., 0., 0., 0., 0. ]
      - [ 0., 18., 1.07272730e+01, 15., 7.38660908e+00, 22.,
          6.91667020e-01, 5.87499976e-01, 67., 21., 1., 0., 0., 0., 0.,
          0., 0., 0., 0., 0., 0., 0., 0., 0. ]
      - [ 0., 17., 1.08000002e+01, 15., 7.12460518e+00, 30.,
          6.54166996e-01, 5.50000012e-01, 73., 30., 0., 0., 0., 0., 0.,
          0., 0., 0., 0., 0., 0., 0., 0., 0. ]
      - [ 0., 36., 1.93125000e+01, 31., 1.60281734e+01, 32.,
          4.83332992e-01, 5.29166996e-01, 84., 13., 15., 4., 0., 0., 0.,
          0., 0., 0., 0., 0., 0., 0., 0., 0. ]
      - [ 0., 98., 4.78333321e+01, 47., 4.78397217e+01, 24.,
          5.29166996e-01, 3.79166991e-01, 99., 12., 0., 0., 0., 0., 12.,
          0., 0., 0., 0., 0., 0., 0., 0., 0. ]
      - [ 0., 107., 4.67037048e+01, 0., 4.86238899e+01, 27.,
          6.75000012e-01, 3.37500006e-01, 103., 14., 0., 0., 0., 0., 10.,
          3., 0., 0., 0., 0., 0., 0., 0., 0. ]
      - [ 0., 97., 4.42222214e+01, 0., 4.59632149e+01, 27.,
          6.75000012e-01, 3.37500006e-01, 113., 14., 0., 0., 0., 1., 12.,
          0., 0., 0., 0., 0., 0., 0., 0., 0. ]
      - [ 0., 128., 6.26428566e+01, 104., 5.86102219e+01, 28.,
          7.83333004e-01, 4.41666991e-01, 114., 13., 0., 0., 0., 0., 0.,
          8., 7., 0., 0., 0., 0., 0., 0., 0. ]
      - [ 0., 113., 4.26666679e+01, 0., 5.35277710e+01, 18.,
          6.70832992e-01, 4.91667002e-01, 123., 11., 0., 0., 0., 0., 1.,
          6., 0., 0., 0., 0., 0., 0., 0., 0. ]
      - [ 0., 43., 1.04062500e+01, 9., 8.74235153e+00, 32.,
          4.00000006e-01, 4.74999994e-01, 130., 28., 3., 1., 0., 0., 0.,
          0., 0., 0., 0., 0., 0., 0., 0., 0. ]
      - [ 0., 51., 2.03999996e+00, 0., 9.99391842e+00, 25.,
          3.83332998e-01, 5.04167020e-01, 131., 24., 0., 1., 0., 0., 0.,
          0., 0., 0., 0., 0., 0., 0., 0., 0. ]
      - [ 0., 51., 9.48148155e+00, 0., 1.27493525e+01, 27.,
          4.20832992e-01, 4.87500012e-01, 131., 23., 3., 1., 0., 0., 0.,
          0., 0., 0., 0., 0., 0., 0., 0., 0. ]
      - [ 0., 51., 1.53636360e+01, 10., 1.55579433e+01, 33.,
          5.04167020e-01, 4.87500012e-01, 132., 19., 10., 4., 0., 0., 0.,
          0., 0., 0., 0., 0., 0., 0., 0., 0. ]
      - [ 0., 57., 1.73714294e+01, 18., 1.74340973e+01, 35.,
          5.79167008e-01, 4.45832998e-01, 133., 17., 12., 3., 3., 0., 0.,
          0., 0., 0., 0., 0., 0., 0., 0., 0. ]
      - [ 0., 2., 1.73913002e-01, 0., 5.63543022e-01, 23.,
          5.87499976e-01, 5.45832992e-01, 133., 23., 0., 0., 0., 0., 0.,
          0., 0., 0., 0., 0., 0., 0., 0., 0. ]
      - [ 0., 50., 2.89655209e+00, 0., 1.08479929e+01, 29.,
          4.91667002e-01, 4.29167002e-01, 134., 27., 1., 1., 0., 0., 0.,
          0., 0., 0., 0., 0., 0., 0., 0., 0. ]
      - [ 0., 50., 1.19285717e+01, 6., 1.36353760e+01, 28.,
          4.79167014e-01, 4.70833004e-01, 134., 18., 9., 1., 0., 0., 0.,
          0., 0., 0., 0., 0., 0., 0., 0., 0. ]
      - [ 0., 91., 4.35714302e+01, 41., 4.36130943e+01, 28.,
          6.12500012e-01, 4.66666996e-01, 134., 14., 0., 0., 0., 4., 10.,
          0., 0., 0., 0., 0., 0., 0., 0., 0. ]
      - [ 0., 39., 2.59999990e+00, 0., 9.72830963e+00, 15.,
          6.33333027e-01, 5.33333004e-01, 134., 14., 0., 1., 0., 0., 0.,
          0., 0., 0., 0., 0., 0., 0., 0., 0. ]
      - [ 0., 114., 5.42777786e+01, 51., 5.43576698e+01, 18.,
          7.62499988e-01, 5.29166996e-01, 25., 9., 0., 0., 0., 0., 0.,
          9., 0., 0., 0., 0., 0., 0., 0., 0. ]
      - [ 0., 193., 6.84000015e+01, 0., 8.42011871e+01, 10.,
          4.00000006e-01, 6.25000000e-01, 33., 6., 0., 0., 0., 0., 0.,
          0., 0., 0., 3., 0., 1., 0., 0., 0. ]
      - [ 0., 114., 3.79545441e+01, 0., 5.04006462e+01, 22.,
          4.45832998e-01, 6.91667020e-01, 33., 14., 0., 0., 0., 0., 3.,
          5., 0., 0., 0., 0., 0., 0., 0., 0. ]
      - [ 0., 183., 5.99411774e+01, 0., 8.14988022e+01, 17.,
          4.20832992e-01, 6.91667020e-01, 35., 11., 0., 0., 0., 0., 0.,
          0., 0., 1., 1., 4., 0., 0., 0., 0. ]
      - [ 0., 158., 1.12142860e+02, 143., 6.12625008e+01, 35.,
          4.66666996e-01, 6.49999976e-01, 35., 8., 0., 0., 0., 0., 0.,
          0., 3., 20., 4., 0., 0., 0., 0., 0. ]
      - [ 0., 169., 9.17391281e+01, 141., 7.39113541e+01, 23.,
          5.24999976e-01, 7.08333015e-01, 35., 9., 0., 0., 0., 0., 0.,
          0., 0., 8., 6., 0., 0., 0., 0., 0. ]
      - [ 0., 189., 1.12236839e+02, 157., 7.67032700e+01, 38.,
          4.41666991e-01, 6.33333027e-01, 36., 12., 0., 0., 0., 0., 0.,
          0., 0., 3., 16., 6., 1., 0., 0., 0. ]
      - [ 0., 173., 1.22184212e+02, 156., 6.82938156e+01, 38.,
          4.66666996e-01, 6.54166996e-01, 36., 9., 0., 0., 0., 0., 0.,
          0., 0., 6., 22., 1., 0., 0., 0., 0. ]
      - [ 0., 160., 6.28108101e+01, 86., 5.14160767e+01, 37.,
          4.20832992e-01, 6.87500000e-01, 39., 14., 0., 0., 0., 3., 12.,
          5., 2., 0., 1., 0., 0., 0., 0., 0. ]
      - [ 0., 132., 3.57272720e+01, 0., 4.80172157e+01, 22.,
          4.83332992e-01, 6.29167020e-01, 39., 14., 0., 0., 0., 1., 5.,
          1., 1., 0., 0., 0., 0., 0., 0., 0. ]
      - [ 0., 186., 1.37515152e+02, 167., 6.52455139e+01, 33.,
          5.08333027e-01, 6.49999976e-01, 39., 6., 0., 0., 0., 0., 0.,
          0., 0., 0., 14., 13., 0., 0., 0., 0. ]
      - [ 0., 147., 9.85999985e+01, 126., 5.52820663e+01, 30.,
          4.04166996e-01, 6.08332992e-01, 42., 7., 0., 0., 0., 0., 0.,
          5., 13., 5., 0., 0., 0., 0., 0., 0. ]
      - [ 0., 255., 1.48391312e+02, 198., 1.00027710e+02, 23.,
          5.08333027e-01, 7.16666996e-01, 43., 7., 0., 0., 0., 0., 0.,
          0., 0., 0., 0., 3., 3., 4., 3., 3. ]
      - [ 0., 157., 2.80666676e+01, 0., 5.64227676e+01, 15.,
          5.24999976e-01, 7.33332992e-01, 44., 12., 0., 0., 0., 0., 0.,
          0., 1., 1., 1., 0., 0., 0., 0., 0. ]
      - [ 0., 58., 1.68235302e+01, 17., 1.79418507e+01, 17.,
          8.83333027e-01, 5.50000012e-01, 44., 9., 4., 3., 1., 0., 0.,
          0., 0., 0., 0., 0., 0., 0., 0., 0. ]
      - [ 0., 140., 6.34814796e+01, 75., 4.05730896e+01, 27.,
          3.79166991e-01, 6.66666985e-01, 45., 7., 0., 0., 2., 11., 4.,
          2., 0., 1., 0., 0., 0., 0., 0., 0. ]
      - [ 0., 47., 1.88571434e+01, 9., 1.99780483e+01, 14.,
          8.83333027e-01, 5.08333027e-01, 45., 7., 2., 5., 0., 0., 0.,
          0., 0., 0., 0., 0., 0., 0., 0., 0. ]
      - [ 0., 120., 7.49772720e+01, 91., 4.02432861e+01, 44.,
          3.95832986e-01, 6.91667020e-01, 49., 9., 0., 0., 2., 9., 12.,
          11., 1., 0., 0., 0., 0., 0., 0., 0. ]
      - [ 0., 78., 7.94999981e+00, 0., 2.01257915e+01, 20.,
          3.75000000e-01, 6.66666985e-01, 52., 17., 0., 2., 0., 1., 0.,
          0., 0., 0., 0., 0., 0., 0., 0., 0. ]
      - [ 0., 41., 1.32258105e+00, 0., 7.24407196e+00, 31.,
          8.20833027e-01, 6.70832992e-01, 53., 30., 0., 1., 0., 0., 0.,
          0., 0., 0., 0., 0., 0., 0., 0., 0. ]
      - [ 0., 254., 1.34571426e+02, 190., 1.06923454e+02, 21.,
          5.50000012e-01, 7.33332992e-01, 57., 8., 0., 0., 0., 0., 0.,
          0., 0., 0., 0., 1., 2., 4., 4., 2. ]
      - [ 0., 176., 4.19166679e+01, 0., 6.60239334e+01, 24.,
          5.66667020e-01, 7.33332992e-01, 58., 17., 0., 0., 0., 0., 0.,
          1., 1., 3., 1., 1., 0., 0., 0., 0. ]
      - [ 0., 57., 2.47407398e+01, 25., 1.78171635e+01, 27.,
          7.95832992e-01, 2.95832992e-01, 60., 7., 10., 8., 2., 0., 0.,
          0., 0., 0., 0., 0., 0., 0., 0., 0. ]
      - [ 0., 48., 1.29411764e+01, 10., 1.51326313e+01, 17.,
          8.87499988e-01, 5.08333027e-01, 62., 11., 3., 3., 0., 0., 0.,
          0., 0., 0., 0., 0., 0., 0., 0., 0. ]
      - [ 0., 69., 1.66428566e+01, 14., 1.95653019e+01, 14.,
          8.79167020e-01, 5.95833004e-01, 69., 9., 2., 2., 0., 1., 0.,
          0., 0., 0., 0., 0., 0., 0., 0., 0. ]
      - [ 0., 59., 1.75000000e+01, 10., 1.98532104e+01, 20.,
          8.62500012e-01, 6.29167020e-01, 72., 12., 4., 1., 3., 0., 0.,
          0., 0., 0., 0., 0., 0., 0., 0., 0. ]
      - [ 0., 123., 1.00594597e+02, 116., 3.99739494e+01, 37.,
          6.70832992e-01, 6.49999976e-01, 73., 5., 0., 0., 0., 0., 0.,
          26., 6., 0., 0., 0., 0., 0., 0., 0. ]
      - [ 0., 43., 6.63333321e+00, 0., 1.48761177e+01, 30.,
          8.99999976e-01, 5.29166996e-01, 76., 25., 0., 5., 0., 0., 0.,
          0., 0., 0., 0., 0., 0., 0., 0., 0. ]
      - [ 0., 34., 1.25909090e+01, 0., 1.52155991e+01, 22.,
          6.54166996e-01, 4.20832992e-01, 80., 13., 9., 0., 0., 0., 0.,
          0., 0., 0., 0., 0., 0., 0., 0., 0. ]
      - [ 0., 118., 3.03750000e+01, 0., 4.61056862e+01, 16.,
          7.16666996e-01, 2.75000006e-01, 100., 11., 0., 0., 1., 0., 1.,
          3., 0., 0., 0., 0., 0., 0., 0., 0. ]
      - [ 0., 46., 1.55454550e+01, 0., 1.76705379e+01, 22.,
          7.91666985e-01, 6.12500012e-01, 107., 12., 5., 5., 0., 0., 0.,
          0., 0., 0., 0., 0., 0., 0., 0., 0. ]
      - [ 0., 33., 1.26923096e+00, 0., 6.34615421e+00, 26.,
          3.41666996e-01, 3.58332992e-01, 121., 25., 1., 0., 0., 0., 0.,
          0., 0., 0., 0., 0., 0., 0., 0., 0. ]
      - [ 0., 128., 2.85625000e+01, 0., 5.00749054e+01, 16.,
          6.54166996e-01, 4.25000012e-01, 127., 12., 0., 0., 0., 0., 1.,
          1., 2., 0., 0., 0., 0., 0., 0., 0. ]
      - [ 0., 23., 8.02941132e+00, 8., 6.43284512e+00, 34.,
          4.25000012e-01, 4.70833004e-01, 130., 32., 2., 0., 0., 0., 0.,
          0., 0., 0., 0., 0., 0., 0., 0., 0. ]
      - [ 0., 28., 1.55555606e+00, 0., 6.41372013e+00, 18.,
          6.75000012e-01, 5.70833027e-01, 130., 17., 1., 0., 0., 0., 0.,
          0., 0., 0., 0., 0., 0., 0., 0., 0. ]
      - [ 0., 51., 8.30769253e+00, 0., 1.40514688e+01, 13.,
          5.91666996e-01, 5.08333027e-01, 131., 11., 1., 1., 0., 0., 0.,
          0., 0., 0., 0., 0., 0., 0., 0., 0. ]
      - [ 0., 31., 2.21428609e+00, 0., 7.98372078e+00, 14.,
          5.87499976e-01, 4.91667002e-01, 133., 13., 1., 0., 0., 0., 0.,
          0., 0., 0., 0., 0., 0., 0., 0., 0. ]
      - [ 0., 33., 4.08695698e+00, 0., 1.05867558e+01, 23.,
          5.29166996e-01, 5.91666996e-01, 135., 20., 3., 0., 0., 0., 0.,
          0., 0., 0., 0., 0., 0., 0., 0., 0. ]
      - [ 0., 48., 3.37941170e+01, 41., 1.73879261e+01, 34.,
          6.83332980e-01, 3.58332992e-01, 5., 7., 0., 27., 0., 0., 0.,
          0., 0., 0., 0., 0., 0., 0., 0., 0. ]
      - [ 0., 64., 3.57894745e+01, 61., 3.05555210e+01, 19.,
          6.66666985e-01, 3.45833004e-01, 7., 8., 0., 0., 11., 0., 0.,
          0., 0., 0., 0., 0., 0., 0., 0., 0. ]
      - [ 0., 76., 3.99000015e+01, 67., 3.61467857e+01, 20.,
          7.74999976e-01, 5.45832992e-01, 23., 9., 0., 0., 1., 10., 0.,
          0., 0., 0., 0., 0., 0., 0., 0., 0. ]
      - [ 0., 81., 4.01304359e+01, 73., 3.84677200e+01, 23.,
          7.58333027e-01, 4.00000006e-01, 26., 11., 0., 0., 0., 12., 0.,
          0., 0., 0., 0., 0., 0., 0., 0., 0. ]
      - [ 0., 78., 5.87307701e+01, 76., 3.21792564e+01, 26.,
          6.75000012e-01, 6.45833015e-01, 27., 6., 0., 0., 0., 20., 0.,
          0., 0., 0., 0., 0., 0., 0., 0., 0. ]
      - [ 0., 81., 4.47826080e+01, 76., 3.93080978e+01, 23.,
          7.37500012e-01, 3.41666996e-01, 30., 10., 0., 0., 0., 13., 0.,
          0., 0., 0., 0., 0., 0., 0., 0., 0. ]
      - [ 0., 164., 9.67200012e+01, 116., 5.66155586e+01, 50.,
          4.41666991e-01, 6.08332992e-01, 35., 12., 0., 0., 0., 0., 2.,
          12., 13., 8., 3., 0., 0., 0., 0., 0. ]
      - [ 0., 63., 2.90833340e+01, 26., 2.91632137e+01, 24.,
          8.04166973e-01, 3.83332998e-01, 36., 12., 0., 0., 12., 0., 0.,
          0., 0., 0., 0., 0., 0., 0., 0., 0. ]
      - [ 0., 112., 6.60975647e+01, 78., 3.49932442e+01, 41.,
          4.45832998e-01, 6.33333027e-01, 38., 8., 0., 0., 7., 12., 12.,
          2., 0., 0., 0., 0., 0., 0., 0., 0. ]
      - [ 0., 60., 3.05769234e+01, 55., 2.83334179e+01, 26.,
          8.37499976e-01, 5.24999976e-01, 38., 12., 0., 0., 14., 0., 0.,
          0., 0., 0., 0., 0., 0., 0., 0., 0. ]
      - [ 0., 68., 4.14857140e+01, 52., 2.34415646e+01, 35.,
          4.91667002e-01, 6.49999976e-01, 39., 8., 0., 9., 18., 0., 0.,
          0., 0., 0., 0., 0., 0., 0., 0., 0. ]
      - [ 0., 60., 3.32285728e+01, 39., 2.08519764e+01, 35.,
          5.70833027e-01, 6.75000012e-01, 41., 9., 4., 16., 6., 0., 0.,
          0., 0., 0., 0., 0., 0., 0., 0., 0. ]
      - [ 0., 160., 1.07193550e+02, 141., 5.97793884e+01, 31.,
          3.95832986e-01, 5.83333015e-01, 42., 7., 0., 0., 0., 0., 1.,
          3., 4., 13., 3., 0., 0., 0., 0., 0. ]
      - [ 0., 39., 11., 11., 1.22850752e+01, 13., 7.58333027e-01,
          4.62500006e-01, 44., 10., 2., 1., 0., 0., 0., 0., 0., 0., 0.,
          0., 0., 0., 0., 0. ]
      - [ 0., 135., 9.71250000e+01, 127., 5.61419792e+01, 32.,
          5.50000012e-01, 6.95833027e-01, 49., 8., 0., 0., 0., 0., 0.,
          0., 24., 0., 0., 0., 0., 0., 0., 0. ]
      - [ 0., 70., 5.12857132e+01, 64., 2.68618908e+01, 28.,
          7.79166996e-01, 4.83332992e-01, 55., 6., 0., 0., 21., 1., 0.,
          0., 0., 0., 0., 0., 0., 0., 0., 0. ]
      - [ 0., 33., 9.90476227e+00, 5., 1.16288013e+01, 21.,
          8.87499988e-01, 5.08333027e-01, 55., 16., 5., 0., 0., 0., 0.,
          0., 0., 0., 0., 0., 0., 0., 0., 0. ]
      - [ 0., 255., 1.58529419e+02, 209., 9.67243576e+01, 34.,
          5.08333027e-01, 5.87499976e-01, 56., 9., 0., 0., 0., 0., 0.,
          0., 0., 0., 1., 1., 5., 7., 9., 2. ]
      - [ 0., 49., 2.41000004e+01, 34., 2.21808472e+01, 20.,
          6.33333027e-01, 4.58332986e-01, 60., 9., 1., 10., 0., 0., 0.,
          0., 0., 0., 0., 0., 0., 0., 0., 0. ]
      - [ 0., 33., 1.02500000e+01, 8., 1.08599033e+01, 16.,
          8.45833004e-01, 6.33333027e-01, 65., 12., 4., 0., 0., 0., 0.,
          0., 0., 0., 0., 0., 0., 0., 0., 0. ]
      - [ 0., 65., 2.98461533e+01, 26., 2.53888111e+01, 26.,
          8.41666996e-01, 3.37500006e-01, 67., 9., 5., 3., 9., 0., 0.,
          0., 0., 0., 0., 0., 0., 0., 0., 0. ]
      - [ 0., 28., 6.20689678e+00, 0., 1.04299946e+01, 29.,
          8.37499976e-01, 3.20832998e-01, 68., 22., 7., 0., 0., 0., 0.,
          0., 0., 0., 0., 0., 0., 0., 0., 0. ]
      - [ 0., 70., 4.77500000e+01, 66., 3.06801376e+01, 24.,
          8.00000012e-01, 3.62500012e-01, 69., 7., 0., 0., 12., 5., 0.,
          0., 0., 0., 0., 0., 0., 0., 0., 0. ]
      - [ 0., 33., 8.33333302e+00, 0., 1.20243864e+01, 33.,
          8.37499976e-01, 3.20832998e-01, 69., 23., 10., 0., 0., 0., 0.,
          0., 0., 0., 0., 0., 0., 0., 0., 0. ]
      - [ 0., 45., 1.02352943e+01, 9., 1.22211456e+01, 17.,
          8.58332992e-01, 6.08332992e-01, 69., 14., 2., 1., 0., 0., 0.,
          0., 0., 0., 0., 0., 0., 0., 0., 0. ]
      - [ 0., 29., 8.94999981e+00, 9., 9.74923038e+00, 20.,
          8.00000012e-01, 6.79166973e-01, 73., 16., 4., 0., 0., 0., 0.,
          0., 0., 0., 0., 0., 0., 0., 0., 0. ]
      - [ 0., 33., 9.52380943e+00, 10., 9.99818611e+00, 21.,
          8.66666973e-01, 3.83332998e-01, 76., 15., 6., 0., 0., 0., 0.,
          0., 0., 0., 0., 0., 0., 0., 0., 0. ]
      - [ 0., 42., 1.18421049e+01, 14., 1.20841923e+01, 19.,
          8.66666973e-01, 3.83332998e-01, 77., 13., 5., 1., 0., 0., 0.,
          0., 0., 0., 0., 0., 0., 0., 0., 0. ]
      - [ 0., 67., 7.96666718e+00, 0., 1.37003241e+01, 30.,
          6.08332992e-01, 7.54167020e-01, 79., 24., 5., 0., 1., 0., 0.,
          0., 0., 0., 0., 0., 0., 0., 0., 0. ]
      - [ 0., 44., 1.13529425e+01, 11., 1.31146135e+01, 17.,
          8.41666996e-01, 6.33333027e-01, 81., 12., 4., 1., 0., 0., 0.,
          0., 0., 0., 0., 0., 0., 0., 0., 0. ]
      - [ 0., 36., 1.07619047e+01, 13., 1.14887304e+01, 21.,
          8.62500012e-01, 3.83332998e-01, 82., 16., 4., 1., 0., 0., 0.,
          0., 0., 0., 0., 0., 0., 0., 0., 0. ]
      - [ 0., 34., 1.03913040e+01, 12., 1.10679293e+01, 23.,
          8.62500012e-01, 3.79166991e-01, 83., 16., 7., 0., 0., 0., 0.,
          0., 0., 0., 0., 0., 0., 0., 0., 0. ]
      - [ 0., 70., 3.15599995e+01, 0., 3.28926506e+01, 25.,
          8.62500012e-01, 5.04167020e-01, 85., 13., 0., 0., 11., 1., 0.,
          0., 0., 0., 0., 0., 0., 0., 0., 0. ]
      - [ 0., 69., 4.63448257e+01, 63., 2.86732788e+01, 29.,
          7.33332992e-01, 4.20832992e-01, 87., 8., 0., 0., 20., 1., 0.,
          0., 0., 0., 0., 0., 0., 0., 0., 0. ]
      - [ 0., 114., 5.24799995e+01, 0., 5.47014580e+01, 25.,
          5.70833027e-01, 5.66667020e-01, 89., 13., 0., 0., 0., 0., 1.,
          11., 0., 0., 0., 0., 0., 0., 0., 0. ]
      - [ 0., 71., 4.01515160e+01, 58., 3.07749615e+01, 33.,
          6.37499988e-01, 2.29166999e-01, 89., 12., 0., 2., 16., 3., 0.,
          0., 0., 0., 0., 0., 0., 0., 0., 0. ]
      - [ 0., 61., 3.13846149e+01, 57., 2.90663395e+01, 26.,
          8.37499976e-01, 3.95832986e-01, 89., 12., 0., 0., 14., 0., 0.,
          0., 0., 0., 0., 0., 0., 0., 0., 0. ]
      - [ 0., 71., 4.01379318e+01, 66., 3.37554321e+01, 29.,
          6.75000012e-01, 3.20832998e-01, 91., 12., 0., 0., 9., 8., 0.,
          0., 0., 0., 0., 0., 0., 0., 0., 0. ]
      - [ 0., 45., 1.64210529e+01, 0., 1.93807163e+01, 19.,
          8.41666996e-01, 6.54166996e-01, 91., 11., 1., 7., 0., 0., 0.,
          0., 0., 0., 0., 0., 0., 0., 0., 0. ]
      - [ 0., 63., 4.12000008e+01, 60., 2.82800274e+01, 25.,
          3.20832998e-01, 3.83332998e-01, 92., 8., 0., 0., 17., 0., 0.,
          0., 0., 0., 0., 0., 0., 0., 0., 0. ]
      - [ 0., 62., 3.57272720e+01, 54., 2.71318588e+01, 33.,
          8.41666996e-01, 4.25000012e-01, 93., 12., 0., 1., 20., 0., 0.,
          0., 0., 0., 0., 0., 0., 0., 0., 0. ]
      - [ 0., 73., 3.58181801e+01, 50., 3.32177887e+01, 22.,
          2.16666996e-01, 4.79167014e-01, 95., 10., 0., 1., 6., 5., 0.,
          0., 0., 0., 0., 0., 0., 0., 0., 0. ]
      - [ 0., 63., 3.62972984e+01, 52., 2.69412422e+01, 37.,
          8.45833004e-01, 5.66667020e-01, 95., 13., 0., 4., 20., 0., 0.,
          0., 0., 0., 0., 0., 0., 0., 0., 0. ]
      - [ 0., 69., 4.50740738e+01, 63., 2.93521729e+01, 27.,
          7.91666985e-01, 3.37500006e-01, 97., 8., 0., 0., 17., 2., 0.,
          0., 0., 0., 0., 0., 0., 0., 0., 0. ]
      - [ 0., 26., 1.15625000e+01, 15., 8.78897572e+00, 16.,
          2.54166991e-01, 4.87500012e-01, 101., 12., 4., 0., 0., 0., 0.,
          0., 0., 0., 0., 0., 0., 0., 0., 0. ]
      - [ 0., 61., 4.75937500e+01, 56., 2.06031837e+01, 32.,
          7.95832992e-01, 3.79166991e-01, 105., 5., 0., 0., 27., 0., 0.,
          0., 0., 0., 0., 0., 0., 0., 0., 0. ]
      - [ 0., 23., 2.03125000e+00, 0., 6.32694817e+00, 32.,
          2.58332998e-01, 3.62500012e-01, 106., 29., 3., 0., 0., 0., 0.,
          0., 0., 0., 0., 0., 0., 0., 0., 0. ]
      - [ 0., 68., 3.84399986e+01, 50., 2.73540936e+01, 25.,
          3.33332986e-01, 3.16666991e-01, 109., 8., 0., 6., 11., 0., 0.,
          0., 0., 0., 0., 0., 0., 0., 0., 0. ]
      - [ 0., 64., 3.94347839e+01, 59., 2.88486691e+01, 23.,
          5.12499988e-01, 3.62500012e-01, 109., 8., 0., 0., 15., 0., 0.,
          0., 0., 0., 0., 0., 0., 0., 0., 0. ]
      - [ 0., 62., 3.75714302e+01, 59., 2.94869976e+01, 21.,
          4.20832992e-01, 5.87499976e-01, 125., 8., 0., 0., 13., 0., 0.,
          0., 0., 0., 0., 0., 0., 0., 0., 0. ]
      - [ 0., 51., 3.56521721e+01, 47., 2.12962723e+01, 23.,
          3.66667002e-01, 4.62500006e-01, 126., 6., 0., 17., 0., 0., 0.,
          0., 0., 0., 0., 0., 0., 0., 0., 0. ]
      - [ 0., 51., 3.05666676e+01, 41., 2.03071136e+01, 30.,
          4.25000012e-01, 4.66666996e-01, 126., 9., 0., 21., 0., 0., 0.,
          0., 0., 0., 0., 0., 0., 0., 0., 0. ]
      - [ 0., 52., 2.83043480e+01, 48., 2.48428707e+01, 23.,
          6.33333027e-01, 4.25000012e-01, 126., 10., 0., 12., 1., 0., 0.,
          0., 0., 0., 0., 0., 0., 0., 0., 0. ]
      - [ 0., 54., 2.64137936e+01, 45., 2.39460850e+01, 29.,
          6.95833027e-01, 4.45832998e-01, 129., 13., 0., 14., 2., 0., 0.,
          0., 0., 0., 0., 0., 0., 0., 0., 0. ]
      - [ 0., 52., 3.24137917e+01, 48., 2.35599270e+01, 29.,
          4.00000006e-01, 4.04166996e-01, 130., 10., 0., 17., 2., 0., 0.,
          0., 0., 0., 0., 0., 0., 0., 0., 0. ]
      - [ 0., 51., 3.82272720e+01, 49., 2.07538204e+01, 22.,
          4.62500006e-01, 4.20832992e-01, 130., 5., 0., 17., 0., 0., 0.,
          0., 0., 0., 0., 0., 0., 0., 0., 0. ]
      - [ 0., 51., 2.92083340e+01, 49., 2.46930809e+01, 24.,
          6.16666973e-01, 4.87500012e-01, 130., 10., 0., 14., 0., 0., 0.,
          0., 0., 0., 0., 0., 0., 0., 0., 0. ]
      - [ 0., 56., 4.26363640e+01, 51., 2.01897335e+01, 33.,
          6.25000000e-01, 5.04167020e-01, 133., 6., 0., 11., 16., 0., 0.,
          0., 0., 0., 0., 0., 0., 0., 0., 0. ]
      - [ 0., 56., 4.41666679e+01, 51., 1.74663162e+01, 30.,
          6.29167020e-01, 5.45832992e-01, 133., 4., 0., 19., 7., 0., 0.,
          0., 0., 0., 0., 0., 0., 0., 0., 0. ]
      - [ 0., 53., 2.90526314e+01, 49., 2.48118687e+01, 19.,
          5.08333027e-01, 4.45832998e-01, 134., 8., 0., 9., 2., 0., 0.,
          0., 0., 0., 0., 0., 0., 0., 0., 0. ]
      - [ 0., 52., 3.60909081e+01, 49., 2.21234322e+01, 22.,
          5.50000012e-01, 4.20832992e-01, 134., 6., 0., 15., 1., 0., 0.,
          0., 0., 0., 0., 0., 0., 0., 0., 0. ]
